{"learner":{"attributes":{"scikit_learn":"{\"_estimator_type\": \"classifier\"}"},"feature_names":["V1","V2","V3","V4","V5","V6","V7","V8","V9","V10","V11","V12","V13","V14","V15","V16","V17","V18","V19","V20","V21","V22","V23","V24","V25","V26","V27","V28","Amount"],"feature_types":["float","float","float","float","float","float","float","float","float","float","float","float","float","float","float","float","float","float","float","float","float","float","float","float","float","float","float","float","float"],"gradient_booster":{"model":{"gbtree_model_param":{"num_parallel_tree":"1","num_trees":"100"},"iteration_indptr":[0,1,2,3,4,5,6,7,8,9,10,11,12,13,14,15,16,17,18,19,20,21,22,23,24,25,26,27,28,29,30,31,32,33,34,35,36,37,38,39,40,41,42,43,44,45,46,47,48,49,50,51,52,53,54,55,56,57,58,59,60,61,62,63,64,65,66,67,68,69,70,71,72,73,74,75,76,77,78,79,80,81,82,83,84,85,86,87,88,89,90,91,92,93,94,95,96,97,98,99,100],"tree_info":[0,0,0,0,0,0,0,0,0,0,0,0,0,0,0,0,0,0,0,0,0,0,0,0,0,0,0,0,0,0,0,0,0,0,0,0,0,0,0,0,0,0,0,0,0,0,0,0,0,0,0,0,0,0,0,0,0,0,0,0,0,0,0,0,0,0,0,0,0,0,0,0,0,0,0,0,0,0,0,0,0,0,0,0,0,0,0,0,0,0,0,0,0,0,0,0,0,0,0,0],"trees":[{"base_weights":[-1.118136E-4,2.0584342E0,-1.4107075E0,6.2587446E-1,8.520295E-2,-1.5764203E0,2.4660584E-1,-7.217358E-1,-1.7424524E0,1.0190778E0,-8.6232024E-1,-1.0582815E0,7.49265E-1,-1.7791669E0,8.520295E-2,4.377146E-1,-3.3543054E-2,-4.0580684E-1,8.520295E-2,8.603382E-2,-1.4387689E0,-4.835629E-2,3.805587E-1,-1.8163114E0,-7.8087896E-2,-2.0828877E-1,3.523214E-1,-5.034638E-1,-7.8087896E-2,-1.7829126E-1,-5.525133E-1],"categories":[],"categories_nodes":[],"categories_segments":[],"categories_sizes":[],"default_left":[0,0,0,0,0,0,0,0,0,0,0,0,0,0,0,0,0,0,0,0,0,0,0,0,0,0,0,0,0,0,0],"id":0,"left_children":[1,3,5,-1,-1,7,9,11,13,15,17,19,21,23,-1,-1,-1,-1,-1,25,27,-1,-1,29,-1,-1,-1,-1,-1,-1,-1],"loss_changes":[5.037366E2,2.888794E0,2.8659637E1,0E0,0E0,1.2041306E1,9.634944E0,9.184824E0,6.291107E0,3.3889298E0,3.0478528E0,6.3106356E0,1.9733832E0,3.844284E0,0E0,0E0,0E0,0E0,0E0,4.6281314E0,2.5882149E0,0E0,0E0,1.2186432E0,0E0,0E0,0E0,0E0,0E0,0E0,0E0],"parents":[2147483647,0,0,1,1,2,2,5,5,6,6,7,7,8,8,9,9,10,10,11,11,12,12,13,13,19,19,20,20,23,23],"right_children":[2,4,6,-1,-1,8,10,12,14,16,18,20,22,24,-1,-1,-1,-1,-1,26,28,-1,-1,30,-1,-1,-1,-1,-1,-1,-1],"split_conditions":[-2.7359405E0,-2.7630875E-1,2.4631987E0,6.2587446E-1,8.520295E-2,-6.5420216E-1,1.299E1,7.958383E-1,2.7171056E0,6.019128E-1,3.661717E-1,-9.600413E-1,-1.42562E0,6.526834E-1,8.520295E-2,4.377146E-1,-3.3543054E-2,-4.0580684E-1,8.520295E-2,2.5062317E-1,5.240075E-1,-4.835629E-2,3.805587E-1,-6.642631E-1,-7.8087896E-2,-2.0828877E-1,3.523214E-1,-5.034638E-1,-7.8087896E-2,-1.7829126E-1,-5.525133E-1],"split_indices":[13,11,3,0,0,13,28,14,6,12,10,9,13,20,0,0,0,0,0,3,18,0,0,20,0,0,0,0,0,0,0],"split_type":[0,0,0,0,0,0,0,0,0,0,0,0,0,0,0,0,0,0,0,0,0,0,0,0,0,0,0,0,0,0,0],"sum_hessian":[1.7147636E2,6.953765E1,1.01938705E2,6.829146E1,1.2461945E0,9.2716866E1,9.221839E0,1.5951289E1,7.676558E1,5.483256E0,3.7385833E0,1.32096615E1,2.741628E0,7.551939E1,1.2461945E0,3.7385833E0,1.7446723E0,2.492389E0,1.2461945E0,3.4893446E0,9.720317E0,1.2461945E0,1.4954333E0,7.3525475E1,1.9939111E0,2.24315E0,1.2461945E0,7.7264056E0,1.9939111E0,1.9939111E0,7.153156E1],"tree_param":{"num_deleted":"0","num_feature":"29","num_nodes":"31","size_leaf_vector":"1"}},{"base_weights":[-6.909283E-3,1.5511389E0,-1.0983924E0,4.7182125E-1,7.0883095E-2,-1.2237779E0,3.1268686E-1,1.6146463E-1,-1.2748743E0,9.477578E-1,-5.9633136E-1,-5.2379924E-1,-1.3893305E0,-7.4478276E-2,4.0812752E-1,1.0435086E-1,-3.3361995E-1,3.668438E-1,-1.0144999E0,-1.3941465E-2,-1.4112438E0,-2.5413123E-1,2.7281463E-1,-3.7756625E-1,-3.0945564E-2,-4.2902127E-1,-1.1882806E-1],"categories":[],"categories_nodes":[],"categories_segments":[],"categories_sizes":[],"default_left":[0,0,0,0,0,0,0,0,0,0,0,0,0,0,0,0,0,0,0,0,0,0,0,0,0,0,0],"id":1,"left_children":[1,3,5,-1,-1,7,9,-1,11,13,15,17,19,-1,-1,-1,-1,21,23,-1,25,-1,-1,-1,-1,-1,-1],"loss_changes":[2.740761E2,1.5139618E0,1.7150116E1,0E0,0E0,8.540436E0,5.4896407E0,0E0,6.585968E0,3.006929E0,2.3941007E0,5.990586E0,2.0890656E0,0E0,0E0,0E0,0E0,4.2617793E0,1.7728453E0,0E0,8.098755E-1,0E0,0E0,0E0,0E0,0E0,0E0],"parents":[2147483647,0,0,1,1,2,2,5,5,6,6,8,8,9,9,10,10,11,11,12,12,17,17,18,18,20,20],"right_children":[2,4,6,-1,-1,8,10,-1,12,14,16,18,20,-1,-1,-1,-1,22,24,-1,26,-1,-1,-1,-1,-1,-1],"split_conditions":[-2.7359405E0,-2.7630875E-1,2.5665226E0,4.7182125E-1,7.0883095E-2,-3.2516987E0,7.7E0,1.6146463E-1,-7.992245E-1,-2.4806574E-1,4.7575433E-2,-7.939846E-2,-1.4244862E0,-7.4478276E-2,4.0812752E-1,1.0435086E-1,-3.3361995E-1,-6.608216E-1,-1.0879115E0,-1.3941465E-2,6.0073E2,-2.5413123E-1,2.7281463E-1,-3.7756625E-1,-3.0945564E-2,-4.2902127E-1,-1.1882806E-1],"split_indices":[13,11,3,0,0,2,28,0,13,19,17,21,19,0,0,0,0,3,13,0,28,0,0,0,0,0,0],"split_type":[0,0,0,0,0,0,0,0,0,0,0,0,0,0,0,0,0,0,0,0,0,0,0,0,0,0,0],"sum_hessian":[1.5916411E2,6.5394684E1,9.376942E1,6.414488E1,1.2498007E0,8.623912E1,7.5302954E0,2.1617172E0,8.40774E1,4.408059E0,3.1222365E0,1.1855651E1,7.222175E1,1.2329738E0,3.175085E0,1.2179893E0,1.9042472E0,4.301198E0,7.5544524E0,1.2097254E0,7.1012024E1,1.1551465E0,3.146052E0,5.6582284E0,1.8962241E0,6.931772E1,1.6943079E0],"tree_param":{"num_deleted":"0","num_feature":"29","num_nodes":"27","size_leaf_vector":"1"}},{"base_weights":[-7.514774E-3,1.3257507E0,-9.1673136E-1,4.043208E-1,5.9081566E-2,-1.0772933E0,-2.8686546E-2,-1.1381015E0,3.228239E-1,8.9092314E-1,-7.119067E-1,5.3138424E-2,-1.1799146E0,3.0777425E-1,-2.2522998E-1,3.9355832E-1,-1.5646218E-1,-9.896184E-1,1.3715036E-1,-2.1508665E-1,2.1825086E-1,-7.065255E-1,-1.2582777E0,-3.7362826E-1,6.1860416E-2,-2.8424245E-1,5.153155E-2,-3.8233185E-1,-8.392358E-2],"categories":[],"categories_nodes":[],"categories_segments":[],"categories_sizes":[],"default_left":[0,0,0,0,0,0,0,0,0,0,0,0,0,0,0,0,0,0,0,0,0,0,0,0,0,0,0,0,0],"id":2,"left_children":[1,3,5,-1,-1,7,9,11,13,15,17,19,21,-1,-1,-1,-1,23,-1,-1,-1,25,27,-1,-1,-1,-1,-1,-1],"loss_changes":[1.6873317E2,1.1352158E0,1.1768387E1,0E0,0E0,6.3316803E0,9.240827E0,3.4178162E0,3.5592308E0,4.419906E0,3.1845202E0,2.204748E0,1.526619E0,0E0,0E0,0E0,0E0,2.433547E0,0E0,0E0,0E0,2.6025586E0,5.067978E-1,0E0,0E0,0E0,0E0,0E0,0E0],"parents":[2147483647,0,0,1,1,2,2,5,5,6,6,7,7,8,8,9,9,10,10,11,11,12,12,17,17,21,21,22,22],"right_children":[2,4,6,-1,-1,8,10,12,14,16,18,20,22,-1,-1,-1,-1,24,-1,-1,-1,26,28,-1,-1,-1,-1,-1,-1],"split_conditions":[-2.7359405E0,-2.7630875E-1,1.4011657E0,4.043208E-1,5.9081566E-2,1.3257941E0,-4.6997884E-1,-2.5769768E0,-2.3249897E-1,1.6736561E0,1.0051296E0,-3.3596382E-1,-6.5420216E-1,3.0777425E-1,-2.2522998E-1,3.9355832E-1,-1.5646218E-1,8.7727326E-1,1.3715036E-1,-2.1508665E-1,2.1825086E-1,3.4902376E-1,2.225129E0,-3.7362826E-1,6.1860416E-2,-2.8424245E-1,5.153155E-2,-3.8233185E-1,-8.392358E-2],"split_indices":[13,11,3,0,0,16,11,2,7,12,10,3,13,0,0,0,0,4,0,0,0,24,2,0,0,0,0,0,0],"split_type":[0,0,0,0,0,0,0,0,0,0,0,0,0,0,0,0,0,0,0,0,0,0,0,0,0,0,0,0,0],"sum_hessian":[1.3719011E2,5.5438118E1,8.175199E1,5.4188766E1,1.2493498E0,6.905371E1,1.2698279E1,6.635883E1,2.6948783E0,5.283167E0,7.4151125E0,2.241061E0,6.411777E1,1.6552621E0,1.0396162E0,4.125056E0,1.1581111E0,6.1158137E0,1.2992989E0,1.016783E0,1.224278E0,1.052892E1,5.358885E1,5.0038986E0,1.1119152E0,8.200467E0,2.328453E0,5.242065E1,1.1681969E0],"tree_param":{"num_deleted":"0","num_feature":"29","num_nodes":"29","size_leaf_vector":"1"}},{"base_weights":[-7.0185773E-3,1.1956723E0,-7.8888375E-1,3.6622664E-1,4.930713E-2,-1.0306638E0,-2.3843749E-1,1.2807323E-2,-1.0707933E0,7.926173E-1,-6.991767E-1,8.550437E-3,-1.1130192E0,1.1360663E0,-1.4906898E-1,1.2013115E-1,-8.1382275E-1,-1.9776294E-2,-1.1548014E0,3.789993E-1,8.162587E-2,4.1262444E-2,-9.303226E-1,-3.5694954E-1,-8.920448E-2,-5.1406052E-2,-3.2196778E-1],"categories":[],"categories_nodes":[],"categories_segments":[],"categories_sizes":[],"default_left":[0,0,0,0,0,0,0,0,0,0,0,0,0,0,0,0,0,0,0,0,0,0,0,0,0,0,0],"id":3,"left_children":[1,3,5,-1,-1,7,9,-1,11,13,15,-1,17,19,-1,-1,21,-1,23,-1,-1,-1,25,-1,-1,-1,-1],"loss_changes":[1.0966427E2,9.879761E-1,9.159542E0,0E0,0E0,2.1477394E0,1.141798E1,0E0,2.217167E0,3.9001703E0,2.3854518E0,0E0,1.9085579E0,3.4368896E-1,0E0,0E0,1.8042574E0,0E0,9.547119E-1,0E0,0E0,0E0,1.2914944E0,0E0,0E0,0E0,0E0],"parents":[2147483647,0,0,1,1,2,2,5,5,6,6,8,8,9,9,10,10,12,12,13,13,16,16,18,18,22,22],"right_children":[2,4,6,-1,-1,8,10,-1,12,14,16,-1,18,20,-1,-1,22,-1,24,-1,-1,-1,26,-1,-1,-1,-1],"split_conditions":[-2.7359405E0,-2.7630875E-1,7.592719E-1,3.6622664E-1,4.930713E-2,-6.642631E-1,-4.6997884E-1,1.2807323E-2,-1.6757683E0,1.6736561E0,4.9E-1,8.550437E-3,-2.5965612E0,1.4204506E0,-1.4906898E-1,1.2013115E-1,-1.447935E0,-1.9776294E-2,1.1601202E0,3.789993E-1,8.162587E-2,4.1262444E-2,9.1047925E-1,-3.5694954E-1,-8.920448E-2,-5.1406052E-2,-3.2196778E-1],"split_indices":[13,11,3,0,0,20,11,0,13,12,28,0,2,4,0,0,12,0,18,0,0,0,3,0,0,0,0],"split_type":[0,0,0,0,0,0,0,0,0,0,0,0,0,0,0,0,0,0,0,0,0,0,0,0,0,0,0],"sum_hessian":[1.1461859E2,4.4948326E1,6.9670265E1,4.3701748E1,1.2465804E0,4.7801384E1,2.186888E1,1.720435E0,4.6080948E1,6.531714E0,1.5337166E1,1.7166045E0,4.436434E1,5.251916E0,1.2797983E0,1.2127175E0,1.4124448E1,1.801245E0,4.25631E1,4.1747513E0,1.0771648E0,1.5212185E0,1.26032295E1,4.0520058E1,2.0430408E0,2.345453E0,1.0257776E1],"tree_param":{"num_deleted":"0","num_feature":"29","num_nodes":"27","size_leaf_vector":"1"}},{"base_weights":[-4.697456E-3,1.1090229E0,-6.827276E-1,3.4178415E-1,4.118417E-2,-9.177071E-1,-1.8927571E-1,-4.245308E-1,-1.0392871E0,6.494993E-1,-5.7961226E-1,2.9017767E-1,-7.609937E-1,2.2049598E-2,-1.0873919E0,9.4984204E-1,-1.2736824E-1,-6.847885E-1,1.2148674E-1,-1.4962721E-1,2.9088557E-1,-2.5082E-3,-9.294783E-1,-3.3958012E-1,1.01020254E-4,3.430481E-1,8.4945135E-2,-3.1864333E-1,-2.074223E-1,-5.5888396E-2,-3.1530833E-1,-1.457896E-1,2.1670981E-1],"categories":[],"categories_nodes":[],"categories_segments":[],"categories_sizes":[],"default_left":[0,0,0,0,0,0,0,0,0,0,0,0,0,0,0,0,0,0,0,0,0,0,0,0,0,0,0,0,0,0,0,0,0],"id":4,"left_children":[1,3,5,-1,-1,7,9,11,13,15,17,19,21,-1,23,25,-1,27,-1,-1,-1,-1,29,-1,-1,-1,-1,-1,31,-1,-1,-1,-1],"loss_changes":[7.305847E1,9.201164E-1,6.798788E0,0E0,0E0,1.9857063E0,7.139891E0,2.5522919E0,1.7811127E0,2.6716828E0,1.791853E0,2.5351548E0,8.631489E-1,0E0,1.4793625E0,4.255767E-1,0E0,2.226986E0,0E0,0E0,0E0,0E0,3.1031466E-1,0E0,0E0,0E0,0E0,0E0,2.2262926E0,0E0,0E0,0E0,0E0],"parents":[2147483647,0,0,1,1,2,2,5,5,6,6,7,7,8,8,9,9,10,10,11,11,12,12,14,14,15,15,17,17,22,22,28,28],"right_children":[2,4,6,-1,-1,8,10,12,14,16,18,20,22,-1,24,26,-1,28,-1,-1,-1,-1,30,-1,-1,-1,-1,-1,32,-1,-1,-1,-1],"split_conditions":[-2.7359405E0,-2.7630875E-1,7.592719E-1,3.4178415E-1,4.118417E-2,-6.5420216E-1,-4.6997884E-1,-2.0738529E-1,-6.642631E-1,1.6736561E0,8.5185945E-1,-2.0415828E-1,-9.894312E-1,2.2049598E-2,7.2038E2,3.6425438E-2,-1.2736824E-1,2.161731E-2,1.2148674E-1,-1.4962721E-1,2.9088557E-1,-2.5082E-3,-7.620984E-1,-3.3958012E-1,1.01020254E-4,3.430481E-1,8.4945135E-2,-3.1864333E-1,6.2049717E-1,-5.5888396E-2,-3.1530833E-1,-1.457896E-1,2.1670981E-1],"split_indices":[13,11,3,0,0,13,11,21,20,12,20,20,9,0,28,19,0,15,0,0,0,0,14,0,0,0,0,0,4,0,0,0,0],"split_type":[0,0,0,0,0,0,0,0,0,0,0,0,0,0,0,0,0,0,0,0,0,0,0,0,0,0,0,0,0,0,0,0,0],"sum_hessian":[9.474609E1,3.561306E1,5.9133034E1,3.437044E1,1.2426171E0,3.9475307E1,1.9657728E1,8.695347E0,3.077996E1,6.0319724E0,1.3625756E1,2.8272717E0,5.868075E0,1.2535813E0,2.9526379E1,4.804209E0,1.2277629E0,1.2585763E1,1.0399934E0,1.4312735E0,1.3959982E0,1.265338E0,4.602737E0,2.8325815E1,1.2005635E0,3.1686466E0,1.6355627E0,6.3450327E0,6.24073E0,1.0029736E0,3.5997634E0,5.1694274E0,1.0713028E0],"tree_param":{"num_deleted":"0","num_feature":"29","num_nodes":"33","size_leaf_vector":"1"}},{"base_weights":[-3.9389743E-3,1.003755E0,-6.292013E-1,-2.1520285E-1,3.3087942E-1,-7.684861E-1,2.0794833E-1,-8.398411E-1,4.1565666E-1,7.984216E-1,-4.6319425E-1,-4.8413473E-1,-1.0628113E0,2.3053093E-1,-3.9115626E-2,1.8920405E-3,3.1135517E-1,4.3385312E-2,-2.6841155E-1,-6.550272E-2,-9.304877E-1,-3.2879192E-1,-5.301314E-2,-2.2015013E-1,1.1548943E-1,-5.389256E-2,-3.029483E-1],"categories":[],"categories_nodes":[],"categories_segments":[],"categories_sizes":[],"default_left":[0,0,0,0,0,0,0,0,0,0,0,0,0,0,0,0,0,0,0,0,0,0,0,0,0,0,0],"id":5,"left_children":[1,3,5,-1,-1,7,9,11,13,15,17,19,21,-1,-1,-1,-1,-1,-1,23,25,-1,-1,-1,-1,-1,-1],"loss_changes":[5.03495E1,6.014267E0,5.909317E0,0E0,0E0,3.9390907E0,3.4691234E0,2.6900005E0,6.942135E-1,8.521278E-1,1.2553992E0,3.191277E0,5.115471E-1,0E0,0E0,0E0,0E0,0E0,0E0,3.3102858E0,3.1588793E-1,0E0,0E0,0E0,0E0,0E0,0E0],"parents":[2147483647,0,0,1,1,2,2,5,5,6,6,7,7,8,8,9,9,10,10,11,11,12,12,19,19,20,20],"right_children":[2,4,6,-1,-1,8,10,12,14,16,18,20,22,-1,-1,-1,-1,-1,-1,24,26,-1,-1,-1,-1,-1,-1],"split_conditions":[-1.4386709E0,-6.608216E-1,2.4631987E0,-2.1520285E-1,3.3087942E-1,4.4839042E-1,1.4704837E-1,-6.997456E-2,-7.187056E-1,-8.029691E-2,2.7379897E-1,-4.2647286E-3,5.558544E-1,2.3053093E-1,-3.9115626E-2,1.8920405E-3,3.1135517E-1,4.3385312E-2,-2.6841155E-1,-4.711196E-1,-5.740326E-1,-3.2879192E-1,-5.301314E-2,-2.2015013E-1,1.1548943E-1,-5.389256E-2,-3.029483E-1],"split_indices":[9,3,3,0,0,26,13,22,19,10,17,13,19,0,0,0,0,0,0,3,25,0,0,0,0,0,0],"split_type":[0,0,0,0,0,0,0,0,0,0,0,0,0,0,0,0,0,0,0,0,0,0,0,0,0,0,0],"sum_hessian":[7.79082E1,2.9599426E1,4.8308777E1,1.273104E0,2.8326323E1,4.1488026E1,6.82075E0,3.940433E1,2.0836973E0,3.5275528E0,3.2931972E0,1.6404835E1,2.2999496E1,1.0184355E0,1.0652618E0,1.056992E0,2.4705608E0,1.6433235E0,1.6498737E0,9.057038E0,7.347796E0,2.1941498E1,1.057998E0,3.3934038E0,5.6636343E0,1.0141772E0,6.3336186E0],"tree_param":{"num_deleted":"0","num_feature":"29","num_nodes":"27","size_leaf_vector":"1"}},{"base_weights":[-9.6564125E-3,9.916983E-1,-5.268621E-1,3.1464505E-1,3.8889617E-2,-1.3097651E-1,-7.943372E-1,5.9470856E-1,-4.243646E-1,5.326902E-2,-9.69522E-1,1.001501E0,-7.702051E-2,-8.0821425E-1,5.6097373E-2,-2.1743572E-1,5.311617E-1,-3.1591067E-1,-2.4671474E-1,5.6470517E-2,3.634035E-1,3.10161E-2,-2.8758985E-1,-2.2637807E-1,4.8636255E-1,2.7861175E-1,-4.6792675E-2,-2.3041242E-1,1.3272817E-1,2.8504854E-1,-7.02107E-2],"categories":[],"categories_nodes":[],"categories_segments":[],"categories_sizes":[],"default_left":[0,0,0,0,0,0,0,0,0,0,0,0,0,0,0,0,0,0,0,0,0,0,0,0,0,0,0,0,0,0,0],"id":6,"left_children":[1,3,5,-1,-1,7,9,11,13,15,17,19,-1,21,23,-1,25,-1,27,-1,-1,-1,-1,-1,29,-1,-1,-1,-1,-1,-1],"loss_changes":[3.45082E1,9.8163414E-1,4.5471E0,0E0,0E0,4.2780933E0,3.9147243E0,2.2868187E0,2.636189E0,2.394326E0,1.0447998E0,4.835496E-1,0E0,1.1788325E0,2.8694072E0,0E0,1.2169923E0,0E0,1.6132007E0,0E0,0E0,0E0,0E0,0E0,1.9914523E0,0E0,0E0,0E0,0E0,0E0,0E0],"parents":[2147483647,0,0,1,1,2,2,5,5,6,6,7,7,8,8,9,9,10,10,11,11,13,13,14,14,16,16,18,18,24,24],"right_children":[2,4,6,-1,-1,8,10,12,14,16,18,20,-1,22,24,-1,26,-1,28,-1,-1,-1,-1,-1,30,-1,-1,-1,-1,-1,-1],"split_conditions":[-2.7359405E0,3.3043903E-1,-1.3284534E-1,3.1464505E-1,3.8889617E-2,-5.254833E-1,-7.992245E-1,-4.2867655E-1,-2.8449606E-2,-6.3176763E-1,2.4631987E0,1.8002996E-1,-7.702051E-2,-5.1549894E-1,-5.726764E-1,-2.1743572E-1,1.6268298E-2,-3.1591067E-1,-2.295307E-1,5.6470517E-2,3.634035E-1,3.10161E-2,-2.8758985E-1,-2.2637807E-1,-1.20929755E-1,2.7861175E-1,-4.6792675E-2,-2.3041242E-1,1.3272817E-1,2.8504854E-1,-7.02107E-2],"split_indices":[13,6,7,0,0,11,13,0,26,3,3,14,0,25,3,0,26,0,16,0,0,0,0,0,25,0,0,0,0,0,0],"split_type":[0,0,0,0,0,0,0,0,0,0,0,0,0,0,0,0,0,0,0,0,0,0,0,0,0,0,0,0,0,0,0],"sum_hessian":[6.4621346E1,2.1696888E1,4.2924458E1,2.0145464E1,1.5514232E0,1.790832E1,2.5016138E1,4.8600698E0,1.3048249E1,4.4039903E0,2.0612146E1,3.1695309E0,1.690539E0,6.8741817E0,6.174067E0,1.4791559E0,2.9248345E0,1.8067722E1,2.5444243E0,1.0391706E0,2.1303604E0,1.0179062E0,5.8562756E0,1.8793234E0,4.294744E0,1.6301512E0,1.2946835E0,1.3834065E0,1.1610178E0,2.4186525E0,1.8760912E0],"tree_param":{"num_deleted":"0","num_feature":"29","num_nodes":"31","size_leaf_vector":"1"}},{"base_weights":[-9.805292E-3,9.0015125E-1,-4.9120474E-1,3.0459285E-1,-1.3156955E-1,4.50472E-1,-5.9721625E-1,2.595074E-1,-1.0913204E-1,1.06153324E-1,-7.06403E-1,6.2280995E-1,-2.0607574E-1,-2.4056958E-1,-8.523218E-1,4.028098E-2,2.3533583E-1,2.63098E-1,-6.909495E-1,-9.281451E-1,6.878389E-3,-1.1100867E-1,1.7700505E-1,3.0482868E-2,-2.8581658E-1,-2.9386404E-1,-3.7942857E-2],"categories":[],"categories_nodes":[],"categories_segments":[],"categories_sizes":[],"default_left":[0,0,0,0,0,0,0,0,0,0,0,0,0,0,0,0,0,0,0,0,0,0,0,0,0,0,0],"id":7,"left_children":[1,3,5,-1,-1,7,9,-1,-1,11,13,15,-1,17,19,-1,-1,21,23,25,-1,-1,-1,-1,-1,-1,-1],"loss_changes":[2.4477175E1,3.42634E0,3.9158602E0,0E0,0E0,1.7548048E0,2.629654E0,0E0,0E0,2.6155581E0,1.761117E0,1.913991E-1,0E0,2.06291E0,1.4569101E0,0E0,0E0,1.1785027E0,1.0623076E0,6.9745064E-1,0E0,0E0,0E0,0E0,0E0,0E0,0E0],"parents":[2147483647,0,0,1,1,2,2,5,5,6,6,9,9,10,10,11,11,13,13,14,14,17,17,18,18,19,19],"right_children":[2,4,6,-1,-1,8,10,-1,-1,12,14,16,-1,18,20,-1,-1,22,24,26,-1,-1,-1,-1,-1,-1,-1],"split_conditions":[-1.4386709E0,-7.4052364E-1,-1.4803982E0,3.0459285E-1,-1.3156955E-1,4.330969E-1,-5.636588E-1,2.595074E-1,-1.0913204E-1,-1.2410396E-1,-6.5420216E-1,5.7787734E-1,-2.0607574E-1,-6.997456E-2,8.3203477E-1,4.028098E-2,2.3533583E-1,-3.027965E-2,-5.0723785E-1,1.5201977E0,6.878389E-3,-1.1100867E-1,1.7700505E-1,3.0482868E-2,-2.8581658E-1,-2.9386404E-1,-3.7942857E-2],"split_indices":[9,2,18,0,0,2,7,0,0,12,13,21,0,22,19,0,0,27,21,12,0,0,0,0,0,0,0],"split_type":[0,0,0,0,0,0,0,0,0,0,0,0,0,0,0,0,0,0,0,0,0,0,0,0,0,0,0],"sum_hessian":[5.3867878E1,1.833694E1,3.5530933E1,1.7106958E1,1.2299837E0,3.2664566E0,3.2264477E1,2.1231463E0,1.1433102E0,4.3392525E0,2.7925226E1,2.75752E0,1.5817325E0,7.2926645E0,2.063256E1,1.1406729E0,1.616847E0,3.6389716E0,3.653693E0,1.8932035E1,1.7005256E0,1.1942539E0,2.4447176E0,1.0590584E0,2.5946345E0,1.7582775E1,1.349261E0],"tree_param":{"num_deleted":"0","num_feature":"29","num_nodes":"27","size_leaf_vector":"1"}},{"base_weights":[-1.1363041E-2,2.934122E-1,-3.8512385E-1,-2.9069465E-1,-1.7675637E-1,3.1240696E-1,-4.844257E-1,6.297294E-1,-3.5351375E-1,-6.062045E-1,2.0980068E-1,7.689906E-1,-1.3206892E-2,-2.2364172E-1,8.041148E-2,-7.1865237E-1,8.634432E-2,-1.22038506E-1,2.1931705E-1,4.528196E-2,2.6130643E-1,-1.7758748E-2,-2.757258E-1],"categories":[],"categories_nodes":[],"categories_segments":[],"categories_sizes":[],"default_left":[0,0,0,0,0,0,0,0,0,0,0,0,0,0,0,0,0,0,0,0,0,0,0],"id":8,"left_children":[1,-1,3,-1,5,7,9,11,13,15,17,19,-1,-1,-1,21,-1,-1,-1,-1,-1,-1,-1],"loss_changes":[1.7465202E1,0E0,3.996388E0,0E0,4.135138E0,2.5108147E0,1.5341141E0,7.557037E-1,1.2072341E0,1.6560173E0,1.3343941E0,2.7398872E-1,0E0,0E0,0E0,1.6758895E0,0E0,0E0,0E0,0E0,0E0,0E0,0E0],"parents":[2147483647,0,0,2,2,4,4,5,5,6,6,7,7,8,8,9,9,10,10,11,11,15,15],"right_children":[2,-1,4,-1,6,8,10,12,14,16,18,20,-1,-1,-1,22,-1,-1,-1,-1,-1,-1,-1],"split_conditions":[-3.708208E0,2.934122E-1,-5.950673E-1,-2.9069465E-1,-2.201335E-1,6.482922E-1,2.4631987E0,1.5483998E0,8.169132E-2,1.0836091E0,3.661717E-1,-8.173434E-1,-1.3206892E-2,-2.2364172E-1,8.041148E-2,-1.710772E-1,8.634432E-2,-1.22038506E-1,2.1931705E-1,4.528196E-2,2.6130643E-1,-1.7758748E-2,-2.757258E-1],"split_indices":[13,0,3,0,11,2,3,4,20,12,10,21,0,0,0,22,0,0,0,0,0,0,0],"split_type":[0,0,0,0,0,0,0,0,0,0,0,0,0,0,0,0,0,0,0,0,0,0,0],"sum_hessian":[4.5210167E1,1.1952708E1,3.3257458E1,7.787122E0,2.5470335E1,9.828542E0,1.5641794E1,6.693381E0,3.1351612E0,1.3415316E1,2.2264783E0,5.429729E0,1.2636518E0,1.8004205E0,1.3347406E0,1.2090725E1,1.3245906E0,1.1205559E0,1.1059223E0,1.1206658E0,4.309063E0,3.120186E0,8.970539E0],"tree_param":{"num_deleted":"0","num_feature":"29","num_nodes":"23","size_leaf_vector":"1"}},{"base_weights":[-9.461455E-3,2.8283766E-1,-3.3065617E-1,-2.6291916E-1,-1.2386394E-1,1.7319776E-1,-4.674665E-1,4.1732743E-1,-2.7885312E-1,2.7906653E-1,-7.5182396E-1,8.46027E-1,3.5845194E-2,1.3975707E-1,-6.350652E-1,-4.3470785E-2,1.8621619E-1,-2.0646814E-2,-2.5449732E-1,6.5894485E-2,2.9940605E-1,1.8918334E-1,-1.0901452E-1,-2.1777081E-1,-5.5777825E-2],"categories":[],"categories_nodes":[],"categories_segments":[],"categories_sizes":[],"default_left":[0,0,0,0,0,0,0,0,0,0,0,0,0,0,0,0,0,0,0,0,0,0,0,0,0],"id":9,"left_children":[1,-1,3,-1,5,7,9,11,13,15,17,19,21,-1,23,-1,-1,-1,-1,-1,-1,-1,-1,-1,-1],"loss_changes":[1.2326648E1,0E0,3.2900586E0,0E0,2.4290144E0,1.5584617E0,2.531498E0,1.4228203E0,1.670435E0,6.325649E-1,4.8146677E-1,1.7489672E-1,1.593501E0,0E0,2.5305271E-2,0E0,0E0,0E0,0E0,0E0,0E0,0E0,0E0,0E0,0E0],"parents":[2147483647,0,0,2,2,4,4,5,5,6,6,7,7,8,8,9,9,10,10,11,11,12,12,14,14],"right_children":[2,-1,4,-1,6,8,10,12,14,16,18,20,22,-1,24,-1,-1,-1,-1,-1,-1,-1,-1,-1,-1],"split_conditions":[-3.708208E0,2.8283766E-1,-4.711196E-1,-2.6291916E-1,-6.503621E-2,-1.6867657E-3,-7.992245E-1,-1.8989217E-1,-5.8231497E-1,1.446E1,-6.82392E-1,-1.2705407E-1,-5.254833E-1,1.3975707E-1,7.592719E-1,-4.3470785E-2,1.8621619E-1,-2.0646814E-2,-2.5449732E-1,6.5894485E-2,2.9940605E-1,1.8918334E-1,-1.0901452E-1,-2.1777081E-1,-5.5777825E-2],"split_indices":[13,0,3,0,7,25,13,14,20,28,17,16,11,0,3,0,0,0,0,0,0,0,0,0,0],"split_type":[0,0,0,0,0,0,0,0,0,0,0,0,0,0,0,0,0,0,0,0,0,0,0,0,0],"sum_hessian":[3.8282528E1,9.167666E0,2.9114862E1,7.1108127E0,2.2004051E1,1.20672455E1,9.936805E0,7.8855014E0,4.181744E0,2.746068E0,7.190737E0,3.1395838E0,4.7459173E0,1.2534429E0,2.9283013E0,1.4823961E0,1.263672E0,1.1022838E0,6.0884533E0,1.0905282E0,2.0490556E0,1.673366E0,3.0725515E0,1.923141E0,1.0051603E0],"tree_param":{"num_deleted":"0","num_feature":"29","num_nodes":"25","size_leaf_vector":"1"}},{"base_weights":[-2.608596E-3,7.797137E-1,-3.2074082E-1,2.792503E-1,-3.50764E-2,-4.5305905E-1,2.2938067E-1,-1.1719314E-1,-7.22145E-1,5.757195E-1,-1.2186423E-1,1.6997623E-1,-3.2192364E-1,-8.613798E-1,-1.2008331E-2,3.8038183E-3,2.3794362E-1,3.5414312E-2,-2.1976906E-1,-5.5467132E-2,-2.8018296E-1,-1.6642898E-1,9.0238035E-2],"categories":[],"categories_nodes":[],"categories_segments":[],"categories_sizes":[],"default_left":[0,0,0,0,0,0,0,0,0,0,0,0,0,0,0,0,0,0,0,0,0,0,0],"id":10,"left_children":[1,3,5,-1,-1,7,9,11,13,15,-1,-1,17,19,-1,-1,-1,21,-1,-1,-1,-1,-1],"loss_changes":[8.6659E0,1.4729047E0,1.905324E0,0E0,0E0,1.7486949E0,1.4362618E0,1.61265E0,1.0167546E0,4.734143E-1,0E0,0E0,1.2732533E0,2.761631E-1,0E0,0E0,0E0,1.02813E0,0E0,0E0,0E0,0E0,0E0],"parents":[2147483647,0,0,1,1,2,2,5,5,6,6,7,7,8,8,9,9,12,12,13,13,17,17],"right_children":[2,4,6,-1,-1,8,10,12,14,16,-1,-1,18,20,-1,-1,-1,22,-1,-1,-1,-1,-1],"split_conditions":[-1.4386709E0,-1.125387E0,2.4631987E0,2.792503E-1,-3.50764E-2,-8.9451805E-2,1.8E1,-4.114763E-1,3.5064885E-1,-2.295307E-1,-1.2186423E-1,1.6997623E-1,-2.5768954E-1,-1.9538722E0,-1.2008331E-2,3.8038183E-3,2.3794362E-1,-7.720336E-1,-2.1976906E-1,-5.5467132E-2,-2.8018296E-1,-1.6642898E-1,9.0238035E-2],"split_indices":[9,13,3,0,0,22,28,25,22,16,0,0,13,2,0,0,0,4,0,0,0,0,0],"split_type":[0,0,0,0,0,0,0,0,0,0,0,0,0,0,0,0,0,0,0,0,0,0,0],"sum_hessian":[3.2814484E1,9.066948E0,2.3747538E1,7.7265573E0,1.3403903E0,1.9285355E1,4.462182E0,9.216762E0,1.0068594E1,2.949298E0,1.512884E0,1.7164618E0,7.5003E0,8.143522E0,1.9250716E0,1.1164598E0,1.832838E0,4.4990196E0,3.0012798E0,1.1325971E0,7.0109253E0,1.0572788E0,3.441741E0],"tree_param":{"num_deleted":"0","num_feature":"29","num_nodes":"23","size_leaf_vector":"1"}},{"base_weights":[-6.456669E-3,2.60833E-1,-2.4132416E-1,-2.5464007E-1,-7.13597E-2,2.7911502E-1,-3.2109985E-1,5.5599236E-1,-2.2261062E-1,4.5399357E-2,-5.416773E-1,2.1121362E-1,-2.5937237E-2,7.8240104E-2,-1.9656537E-1,-1.8861899E-1,4.3578187E-1,-2.3999865E-1,-8.203494E-3,-8.47624E-2,2.4127062E-1,1.1360464E-1,-1.282233E-1],"categories":[],"categories_nodes":[],"categories_segments":[],"categories_sizes":[],"default_left":[0,0,0,0,0,0,0,0,0,0,0,0,0,0,0,0,0,0,0,0,0,0,0],"id":11,"left_children":[1,-1,3,-1,5,7,9,11,13,15,17,-1,-1,-1,-1,-1,19,-1,21,-1,-1,-1,-1],"loss_changes":[6.31943E0,0E0,2.4382396E0,0E0,1.8403951E0,1.3542513E0,1.0063947E0,6.309751E-1,9.789398E-1,1.7176596E0,1.048902E0,0E0,0E0,0E0,0E0,0E0,1.3030037E0,0E0,7.309762E-1,0E0,0E0,0E0,0E0],"parents":[2147483647,0,0,2,2,4,4,5,5,6,6,7,7,8,8,9,9,10,10,16,16,18,18],"right_children":[2,-1,4,-1,6,8,10,12,14,16,18,-1,-1,-1,-1,-1,20,-1,22,-1,-1,-1,-1],"split_conditions":[-3.708208E0,2.60833E-1,-5.950673E-1,-2.5464007E-1,-2.201335E-1,4.330969E-1,-1.195927E-1,2.8003713E-1,9.811573E-3,-5.1144105E-1,6.4578944E-1,2.1121362E-1,-2.5937237E-2,7.8240104E-2,-1.9656537E-1,-1.8861899E-1,1.01556614E-1,-2.3999865E-1,-1.710772E-1,-8.47624E-2,2.4127062E-1,1.1360464E-1,-1.282233E-1],"split_indices":[13,0,3,0,11,2,21,25,27,21,2,0,0,0,0,0,12,0,22,0,0,0,0],"split_type":[0,0,0,0,0,0,0,0,0,0,0,0,0,0,0,0,0,0,0,0,0,0,0],"sum_hessian":[2.8698622E1,5.496918E0,2.3201702E1,4.199201E0,1.9002502E1,7.857707E0,1.1144794E1,4.993747E0,2.8639598E0,4.485731E0,6.6590633E0,3.9805508E0,1.0131967E0,1.5401186E0,1.3238412E0,1.4211243E0,3.064607E0,4.149971E0,2.509092E0,1.118056E0,1.9465508E0,1.3551232E0,1.1539688E0],"tree_param":{"num_deleted":"0","num_feature":"29","num_nodes":"23","size_leaf_vector":"1"}},{"base_weights":[-1.49464905E-2,2.4849053E-1,-2.1868396E-1,-2.2224258E-1,-5.549397E-2,1.8528977E-1,-4.183089E-1,6.199012E-1,-3.417408E-2,7.810813E-2,-6.8343824E-1,5.3236816E-2,2.2420314E-1,3.7615862E-1,-2.9486126E-1,-2.4640326E-1,-2.433026E-2,1.751819E-1,-1.7055333E-2,4.3024465E-2,-1.7024323E-1],"categories":[],"categories_nodes":[],"categories_segments":[],"categories_sizes":[],"default_left":[0,0,0,0,0,0,0,0,0,0,0,0,0,0,0,0,0,0,0,0,0],"id":12,"left_children":[1,-1,3,-1,5,7,9,11,13,-1,15,-1,-1,17,19,-1,-1,-1,-1,-1,-1],"loss_changes":[4.6642094E0,0E0,1.8170353E0,0E0,1.6234142E0,1.1018322E0,1.5033567E0,8.467829E-2,1.0175785E0,0E0,3.9628863E-1,0E0,0E0,3.689965E-1,7.676482E-1,0E0,0E0,0E0,0E0,0E0,0E0],"parents":[2147483647,0,0,2,2,4,4,5,5,6,6,7,7,8,8,10,10,13,13,14,14],"right_children":[2,-1,4,-1,6,8,10,12,14,-1,16,-1,-1,18,20,-1,-1,-1,-1,-1,-1],"split_conditions":[-3.708208E0,2.4849053E-1,-4.711196E-1,-2.2224258E-1,1.4704837E-1,-3.993681E-1,-4.2968252E-1,6.102914E-1,-5.56489E-1,7.810813E-2,8.9665794E-1,5.3236816E-2,2.2420314E-1,1.4702804E-2,1.1914379E-2,-2.4640326E-1,-2.433026E-2,1.751819E-1,-1.7055333E-2,4.3024465E-2,-1.7024323E-1],"split_indices":[13,0,3,0,13,11,7,3,14,0,9,0,0,23,10,0,0,0,0,0,0],"split_type":[0,0,0,0,0,0,0,0,0,0,0,0,0,0,0,0,0,0,0,0,0],"sum_hessian":[2.509453E1,4.2867174E0,2.0807814E1,4.1119924E0,1.669582E1,1.03297415E1,6.3660793E0,2.8537505E0,7.475991E0,1.7933944E0,4.572685E0,1.1731926E0,1.6805578E0,2.732294E0,4.743697E0,3.4249442E0,1.1477408E0,1.6107911E0,1.1215029E0,2.0008793E0,2.7428179E0],"tree_param":{"num_deleted":"0","num_feature":"29","num_nodes":"21","size_leaf_vector":"1"}},{"base_weights":[-7.2465194E-3,5.473066E-1,-2.6574045E-1,2.4209358E-1,-9.080292E-2,-5.6653434E-1,7.1316E-2,-1.2964211E-1,9.372273E-2,-7.345643E-1,9.340372E-2,4.1748327E-1,-3.635849E-1,5.4365993E-3,-2.549909E-1,-2.4050148E-2,6.1944747E-1,-1.7668103E-1,4.4163644E-2,4.906311E-2,2.264552E-1],"categories":[],"categories_nodes":[],"categories_segments":[],"categories_sizes":[],"default_left":[0,0,0,0,0,0,0,0,0,0,0,0,0,0,0,0,0,0,0,0,0],"id":13,"left_children":[1,3,5,-1,7,9,11,-1,-1,13,-1,15,17,-1,-1,-1,19,-1,-1,-1,-1],"loss_changes":[3.4857068E0,1.3549926E0,1.7199881E0,0E0,5.6663984E-1,1.5365229E0,1.461641E0,0E0,0E0,6.876688E-1,0E0,5.83352E-1,5.920908E-1,0E0,0E0,0E0,1.1678541E-1,0E0,0E0,0E0,0E0],"parents":[2147483647,0,0,1,1,2,2,4,4,5,5,6,6,9,9,11,11,12,12,16,16],"right_children":[2,4,6,-1,8,10,12,-1,-1,14,-1,16,18,-1,-1,-1,20,-1,-1,-1,-1],"split_conditions":[-9.600413E-1,-2.201335E-1,7.761709E-1,2.4209358E-1,9.475E1,1.0801328E0,1.4704837E-1,-1.2964211E-1,9.372273E-2,-3.6801425E-1,9.340372E-2,-2.7097073E-1,8.0703326E-2,5.4365993E-3,-2.549909E-1,-2.4050148E-2,4.320631E-1,-1.7668103E-1,4.4163644E-2,4.906311E-2,2.264552E-1],"split_indices":[9,11,3,0,28,18,13,0,0,19,0,25,22,0,0,0,10,0,0,0,0],"split_type":[0,0,0,0,0,0,0,0,0,0,0,0,0,0,0,0,0,0,0,0,0],"sum_hessian":[2.2301691E1,6.735205E0,1.5566485E1,4.599036E0,2.136169E0,7.8659616E0,7.700524E0,1.1179924E0,1.0181766E0,6.739286E0,1.1266756E0,4.309973E0,3.3905513E0,1.0079963E0,5.7312894E0,1.4182913E0,2.8916812E0,2.2464802E0,1.144071E0,1.1677345E0,1.7239467E0],"tree_param":{"num_deleted":"0","num_feature":"29","num_nodes":"21","size_leaf_vector":"1"}},{"base_weights":[-2.8924554E-4,2.2297475E-1,-1.5257598E-1,1.2462954E-1,-4.184346E-1,-1.250304E-1,2.9358223E-1,1.757893E-1,-6.903099E-1,4.4963366E-1,-8.636045E-2,1.564512E-1,-7.40394E-2,-2.506779E-1,-2.9856924E-2,7.307523E-1,2.0516185E-2,5.459835E-2,2.6543948E-1,1.13820456E-1,-1.1005704E-1],"categories":[],"categories_nodes":[],"categories_segments":[],"categories_sizes":[],"default_left":[0,0,0,0,0,0,0,0,0,0,0,0,0,0,0,0,0,0,0,0,0],"id":14,"left_children":[1,-1,3,5,7,-1,9,11,13,15,-1,-1,-1,-1,-1,17,19,-1,-1,-1,-1],"loss_changes":[2.4767513E0,0E0,1.3900135E0,1.0057405E0,1.6554531E0,0E0,8.505419E-1,6.806315E-1,4.9345493E-1,7.879425E-1,0E0,0E0,0E0,0E0,0E0,1.7648268E-1,6.4848167E-1,0E0,0E0,0E0,0E0],"parents":[2147483647,0,0,2,2,3,3,4,4,6,6,7,7,8,8,9,9,15,15,16,16],"right_children":[2,-1,4,6,8,-1,10,12,14,16,-1,-1,-1,-1,-1,18,20,-1,-1,-1,-1],"split_conditions":[-3.708208E0,2.2297475E-1,-1.3284534E-1,3.985245E-2,-7.992245E-1,-1.250304E-1,6.118855E-1,1.6268298E-2,2.4631987E0,1.4704837E-1,-8.636045E-2,1.564512E-1,-7.40394E-2,-2.506779E-1,-2.9856924E-2,-6.74517E-1,-4.166948E-1,5.459835E-2,2.6543948E-1,1.13820456E-1,-1.1005704E-1],"split_indices":[13,0,7,3,13,0,17,26,3,13,0,0,0,0,0,5,15,0,0,0,0],"split_type":[0,0,0,0,0,0,0,0,0,0,0,0,0,0,0,0,0,0,0,0,0],"sum_hessian":[1.9871923E1,2.7184634E0,1.715346E1,8.657585E0,8.495874E0,1.7102929E0,6.947292E0,2.7778623E0,5.718012E0,5.6560163E0,1.2912756E0,1.3991538E0,1.3787085E0,4.2568235E0,1.461188E0,2.9926114E0,2.663405E0,1.1340863E0,1.858525E0,1.3932209E0,1.2701842E0],"tree_param":{"num_deleted":"0","num_feature":"29","num_nodes":"21","size_leaf_vector":"1"}},{"base_weights":[4.772581E-3,2.087112E-1,-1.2698036E-1,-2.0665698E-1,-2.6687058E-3,1.9970429E-1,-2.6428923E-1,-8.276741E-2,3.6590326E-1,2.4769516E-1,-5.556564E-1,5.154348E-1,-7.8574546E-2,1.6032203E-1,-3.9574876E-2,-2.1422003E-1,-3.2219715E-2,2.3304214E-1,-2.333357E-3],"categories":[],"categories_nodes":[],"categories_segments":[],"categories_sizes":[],"default_left":[0,0,0,0,0,0,0,0,0,0,0,0,0,0,0,0,0,0,0],"id":15,"left_children":[1,-1,3,-1,5,7,9,-1,11,13,15,17,-1,-1,-1,-1,-1,-1,-1],"loss_changes":[1.8133621E0,0E0,1.1688409E0,0E0,8.3255064E-1,8.0237293E-1,1.1600931E0,0E0,7.926936E-1,4.1634083E-1,2.5538158E-1,8.258889E-1,0E0,0E0,0E0,0E0,0E0,0E0,0E0],"parents":[2147483647,0,0,2,2,4,4,5,5,6,6,8,8,9,9,10,10,11,11],"right_children":[2,-1,4,-1,6,8,10,-1,12,14,16,18,-1,-1,-1,-1,-1,-1,-1],"split_conditions":[-3.708208E0,2.087112E-1,-5.950673E-1,-2.0665698E-1,-6.503621E-2,-2.204016E-1,-7.992245E-1,-8.276741E-2,1.9454104E0,1.6268298E-2,2.4631987E0,5.2053934E-1,-7.8574546E-2,1.6032203E-1,-3.9574876E-2,-2.1422003E-1,-3.2219715E-2,2.3304214E-1,-2.333357E-3],"split_indices":[13,0,3,0,7,26,13,0,0,26,3,1,0,0,0,0,0,0,0],"split_type":[0,0,0,0,0,0,0,0,0,0,0,0,0,0,0,0,0,0,0],"sum_hessian":[1.7949564E1,2.1891227E0,1.5760442E1,2.032478E0,1.3727963E1,7.873889E0,5.854075E0,1.8681053E0,6.0057836E0,2.1775734E0,3.6765015E0,4.99508E0,1.0107034E0,1.0082744E0,1.169299E0,2.2783632E0,1.3981382E0,3.0078254E0,1.9872547E0],"tree_param":{"num_deleted":"0","num_feature":"29","num_nodes":"19","size_leaf_vector":"1"}},{"base_weights":[-7.405506E-4,5.1384515E-1,-1.6223694E-1,-5.345205E-2,2.3168424E-1,1.4512512E-1,-3.6385053E-1,-1.0116804E-1,3.2534057E-1,-5.417793E-1,7.063714E-2,-4.2626582E-2,4.859912E-1,-2.3213614E-2,-2.255017E-1,4.0501595E-2,1.9647141E-1,6.1609764E-2,-7.027435E-2],"categories":[],"categories_nodes":[],"categories_segments":[],"categories_sizes":[],"default_left":[0,0,0,0,0,0,0,0,0,0,0,0,0,0,0,0,0,0,0],"id":16,"left_children":[1,3,5,-1,-1,7,9,-1,11,13,-1,-1,15,17,-1,-1,-1,-1,-1],"loss_changes":[1.5341469E0,9.26304E-1,9.233004E-1,0E0,0E0,6.555548E-1,1.0625491E0,0E0,4.5054907E-1,7.5140285E-1,0E0,0E0,1.4915001E-1,1.9606204E-1,0E0,0E0,0E0,0E0,0E0],"parents":[2147483647,0,0,1,1,2,2,5,5,6,6,8,8,9,9,12,12,13,13],"right_children":[2,4,6,-1,-1,8,10,-1,12,14,-1,-1,16,18,-1,-1,-1,-1,-1],"split_conditions":[-7.826692E-1,3.584964E-1,-6.5420216E-1,-5.345205E-2,2.3168424E-1,-2.5302147E-2,7.2438127E-1,-1.0116804E-1,-2.8961658E-1,-5.56489E-1,7.063714E-2,-4.2626582E-2,3.661717E-1,1.1761445E-2,-2.255017E-1,4.0501595E-2,1.9647141E-1,6.1609764E-2,-7.027435E-2],"split_indices":[16,1,13,0,0,27,19,0,25,14,0,0,10,23,0,0,0,0,0],"split_type":[0,0,0,0,0,0,0,0,0,0,0,0,0,0,0,0,0,0,0],"sum_hessian":[1.6457487E1,3.4100535E0,1.3047434E1,1.0116651E0,2.3983884E0,5.2792864E0,7.768147E0,1.1989688E0,4.0803175E0,6.0638413E0,1.7043056E0,1.0732199E0,3.0070977E0,2.067193E0,3.9966483E0,1.5615675E0,1.4455302E0,1.005239E0,1.061954E0],"tree_param":{"num_deleted":"0","num_feature":"29","num_nodes":"19","size_leaf_vector":"1"}},{"base_weights":[4.5262026E-3,3.9506137E-1,-1.9010699E-1,5.743544E-1,-5.733933E-2,-5.499672E-1,9.7342045E-4,2.1318811E-1,4.4168215E-2,-2.1384777E-1,-1.2101765E-2,3.151123E-1,-3.069065E-1,-3.0270241E-2,1.866305E-1,-4.8063406E-1,3.7441745E-2,-1.6975285E-1,-3.8897414E-2],"categories":[],"categories_nodes":[],"categories_segments":[],"categories_sizes":[],"default_left":[0,0,0,0,0,0,0,0,0,0,0,0,0,0,0,0,0,0,0],"id":17,"left_children":[1,3,5,7,-1,9,11,-1,-1,-1,-1,13,15,-1,-1,17,-1,-1,-1],"loss_changes":[1.3030511E0,7.086534E-1,7.8832316E-1,1.638912E-1,0E0,3.0117977E-1,9.170107E-1,0E0,0E0,0E0,0E0,6.6192406E-1,4.1923693E-1,0E0,0E0,3.4944475E-2,0E0,0E0,0E0],"parents":[2147483647,0,0,1,1,2,2,3,3,5,5,6,6,11,11,12,12,15,15],"right_children":[2,4,6,8,-1,10,12,-1,-1,-1,-1,14,16,-1,-1,18,-1,-1,-1],"split_conditions":[-5.556986E-1,6.482922E-1,-1.543569E-2,-2.2295362E-1,-5.733933E-2,1.22241125E-1,-5.296655E-2,2.1318811E-1,4.4168215E-2,-2.1384777E-1,-1.2101765E-2,-3.1918883E-1,3.524577E-1,-3.0270241E-2,1.866305E-1,7.301421E-1,3.7441745E-2,-1.6975285E-1,-3.8897414E-2],"split_indices":[11,2,27,0,0,20,21,0,0,0,0,21,25,0,0,4,0,0,0],"split_type":[0,0,0,0,0,0,0,0,0,0,0,0,0,0,0,0,0,0,0],"sum_hessian":[1.5154839E1,4.6981463E0,1.0456693E1,3.6132047E0,1.0849413E0,2.975243E0,7.4814496E0,2.2360635E0,1.3771414E0,1.952558E0,1.0226849E0,3.691457E0,3.7899923E0,1.8524511E0,1.8390061E0,2.6216717E0,1.1683208E0,1.6169231E0,1.0047486E0],"tree_param":{"num_deleted":"0","num_feature":"29","num_nodes":"19","size_leaf_vector":"1"}},{"base_weights":[1.5237815E-4,-1.8123147E-1,1.08235255E-1,4.961055E-1,-6.339349E-2,1.979083E-1,-6.0979896E-3,-4.1442522E-1,1.4105193E-1,-1.9735959E-1,4.189971E-3,3.4773436E-1,-8.85257E-2,-2.6731564E-2,1.756689E-1],"categories":[],"categories_nodes":[],"categories_segments":[],"categories_sizes":[],"default_left":[0,0,0,0,0,0,0,0,0,0,0,0,0,0,0],"id":18,"left_children":[1,-1,3,5,7,-1,-1,9,11,-1,-1,13,-1,-1,-1],"loss_changes":[1.0540098E0,0E0,9.427028E-1,3.7772954E-1,8.03132E-1,0E0,0E0,4.3394953E-1,7.6095027E-1,0E0,0E0,6.146734E-1,0E0,0E0,0E0],"parents":[2147483647,0,0,2,2,3,3,4,4,7,7,8,8,11,11],"right_children":[2,-1,4,6,8,-1,-1,10,12,-1,-1,14,-1,-1,-1],"split_conditions":[-5.950673E-1,-1.8123147E-1,-9.600413E-1,6.920024E-1,-5.86957E-2,1.979083E-1,-6.0979896E-3,2.2371829E-1,-1.5414926E-2,-1.9735959E-1,4.189971E-3,2.6541573E-3,-8.85257E-2,-2.6731564E-2,1.756689E-1],"split_indices":[3,0,9,14,4,0,0,18,19,0,0,26,0,0,0],"split_type":[0,0,0,0,0,0,0,0,0,0,0,0,0,0,0],"sum_hessian":[1.4137444E1,1.4487373E0,1.2688706E1,3.312374E0,9.376332E0,2.3048618E0,1.0075123E0,3.0729768E0,6.3033557E0,1.6179116E0,1.4550653E0,4.414196E0,1.8891597E0,1.7764959E0,2.6377E0],"tree_param":{"num_deleted":"0","num_feature":"29","num_nodes":"15","size_leaf_vector":"1"}},{"base_weights":[-9.27536E-3,3.512446E-1,-1.8252748E-1,1.6887528E-1,-2.7773762E-2,-4.9000868E-1,-2.1113597E-2,-1.8791623E-1,-2.6005847E-2,-3.5211274E-1,2.2146761E-1,3.5301168E-2,-1.885903E-1,3.9290997E-1,-6.2814206E-2,1.7921053E-1,-1.1023127E-2],"categories":[],"categories_nodes":[],"categories_segments":[],"categories_sizes":[],"default_left":[0,0,0,0,0,0,0,0,0,0,0,0,0,0,0,0,0],"id":19,"left_children":[1,3,5,-1,-1,7,9,-1,-1,11,13,-1,-1,15,-1,-1,-1],"loss_changes":[9.480709E-1,5.157817E-1,4.9672765E-1,0E0,0E0,1.366772E-1,6.998369E-1,0E0,0E0,5.496253E-1,4.5773923E-1,0E0,0E0,3.719192E-1,0E0,0E0,0E0],"parents":[2147483647,0,0,1,1,2,2,5,5,6,6,9,9,10,10,13,13],"right_children":[2,4,6,-1,-1,8,10,-1,-1,12,14,-1,-1,16,-1,-1,-1],"split_conditions":[-5.556986E-1,2.0151649E-2,-1.543569E-2,1.6887528E-1,-2.7773762E-2,8.169132E-2,5.8949348E-2,-1.8791623E-1,-2.6005847E-2,-1.2616292E0,8.0703326E-2,3.5301168E-2,-1.885903E-1,3.5883322E-2,-6.2814206E-2,1.7921053E-1,-1.1023127E-2],"split_indices":[11,13,27,0,0,20,15,0,0,1,22,0,0,27,0,0,0],"split_type":[0,0,0,0,0,0,0,0,0,0,0,0,0,0,0,0,0],"sum_hessian":[1.3152211E1,3.9354925E0,9.216719E0,2.4829588E0,1.4525337E0,2.472006E0,6.744713E0,1.4340358E0,1.0379703E0,2.6615434E0,4.083169E0,1.1990076E0,1.4625359E0,2.9838831E0,1.0992861E0,1.7572943E0,1.2265888E0],"tree_param":{"num_deleted":"0","num_feature":"29","num_nodes":"17","size_leaf_vector":"1"}},{"base_weights":[-1.7193744E-2,-3.631797E-1,1.5950938E-1,-5.4162896E-1,4.3614905E-2,4.8925465E-1,-7.177799E-2,-1.9899915E-1,-3.2300457E-2,1.9067277E-1,8.146919E-3,2.1099167E-1,-3.2792342E-1,1.4348926E-1,-5.5120226E-2,-1.7757785E-1,5.0402496E-2],"categories":[],"categories_nodes":[],"categories_segments":[],"categories_sizes":[],"default_left":[0,0,0,0,0,0,0,0,0,0,0,0,0,0,0,0,0],"id":20,"left_children":[1,3,5,7,-1,9,11,-1,-1,-1,-1,13,15,-1,-1,-1,-1],"loss_changes":[8.7390524E-1,5.159199E-1,7.618918E-1,1.2808871E-1,0E0,2.5701886E-1,5.38028E-1,0E0,0E0,0E0,0E0,4.7670197E-1,5.9538746E-1,0E0,0E0,0E0,0E0],"parents":[2147483647,0,0,1,1,2,2,3,3,5,5,6,6,11,11,12,12],"right_children":[2,4,6,8,-1,10,12,-1,-1,-1,-1,14,16,-1,-1,-1,-1],"split_conditions":[2.9897377E-1,6.926884E-1,-4.6997884E-1,9.475E1,4.3614905E-2,2.7901268E-1,2.68E0,-1.9899915E-1,-3.2300457E-2,1.9067277E-1,8.146919E-3,2.7379897E-1,4.5957637E-1,1.4348926E-1,-5.5120226E-2,-1.7757785E-1,5.0402496E-2],"split_indices":[3,18,11,28,0,13,28,0,0,0,0,17,8,0,0,0,0],"split_type":[0,0,0,0,0,0,0,0,0,0,0,0,0,0,0,0,0],"sum_hessian":[1.2346703E1,3.8172295E0,8.529472E0,2.7775855E0,1.0396439E0,3.0564923E0,5.4729805E0,1.7564505E0,1.0211351E0,2.0362961E0,1.0201964E0,2.6850846E0,2.7878957E0,1.4747034E0,1.2103812E0,1.6930559E0,1.0948397E0],"tree_param":{"num_deleted":"0","num_feature":"29","num_nodes":"17","size_leaf_vector":"1"}},{"base_weights":[-1.6687736E-2,-2.5819555E-1,1.8543085E-1,-3.852796E-1,4.2138014E-2,3.9355192E-1,-1.6440226E-1,1.0201153E-2,-1.6704875E-1,1.6363475E-1,7.382125E-3,3.9659243E-2,-1.0696805E-1],"categories":[],"categories_nodes":[],"categories_segments":[],"categories_sizes":[],"default_left":[0,0,0,0,0,0,0,0,0,0,0,0,0],"id":21,"left_children":[1,3,5,7,-1,9,11,-1,-1,-1,-1,-1,-1],"loss_changes":[6.5732414E-1,3.634809E-1,6.019432E-1,3.711986E-1,0E0,2.623698E-1,2.4420695E-1,0E0,0E0,0E0,0E0,0E0,0E0],"parents":[2147483647,0,0,1,1,2,2,3,3,5,5,6,6],"right_children":[2,4,6,8,-1,10,12,-1,-1,-1,-1,-1,-1],"split_conditions":[7.592719E-1,7.3199874E-1,1.4704837E-1,-8.760604E-1,4.2138014E-2,6.867303E-1,5.8260363E-2,1.0201153E-2,-1.6704875E-1,1.6363475E-1,7.382125E-3,3.9659243E-2,-1.0696805E-1],"split_indices":[3,18,13,9,0,17,1,0,0,0,0,0,0],"split_type":[0,0,0,0,0,0,0,0,0,0,0,0,0],"sum_hessian":[1.148528E1,5.10635E0,6.37893E0,3.8974633E0,1.2088866E0,3.9211862E0,2.4577436E0,1.3644363E0,2.5330272E0,2.4387374E0,1.4824489E0,1.0889555E0,1.3687882E0],"tree_param":{"num_deleted":"0","num_feature":"29","num_nodes":"13","size_leaf_vector":"1"}},{"base_weights":[-1.4398947E-2,-1.3597272E-1,8.316385E-2,3.4958324E-1,-8.06325E-2,1.578776E-1,-2.7043046E-2,-3.0168247E-1,1.3989295E-1,7.918258E-3,-1.5389943E-1,-5.313006E-2,1.18104696E-1],"categories":[],"categories_nodes":[],"categories_segments":[],"categories_sizes":[],"default_left":[0,0,0,0,0,0,0,0,0,0,0,0,0],"id":22,"left_children":[1,-1,3,5,7,-1,-1,9,11,-1,-1,-1,-1],"loss_changes":[5.485997E-1,0E0,4.9108383E-1,3.7575436E-1,4.020294E-1,0E0,0E0,2.9107022E-1,4.2195487E-1,0E0,0E0,0E0,0E0],"parents":[2147483647,0,0,2,2,3,3,4,4,7,7,8,8],"right_children":[2,-1,4,6,8,-1,-1,10,12,-1,-1,-1,-1],"split_conditions":[-4.711196E-1,-1.3597272E-1,-3.993681E-1,6.482922E-1,2.6541573E-3,1.578776E-1,-2.7043046E-2,-3.6990896E-1,-4.7252845E-2,7.918258E-3,-1.5389943E-1,-5.313006E-2,1.18104696E-1],"split_indices":[3,0,11,2,26,0,0,9,9,0,0,0,0],"split_type":[0,0,0,0,0,0,0,0,0,0,0,0,0],"sum_hessian":[1.0932939E1,1.3254292E0,9.60751E0,3.2260282E0,6.381481E0,2.16099E0,1.0650382E0,3.0031607E0,3.3783205E0,1.5193695E0,1.4837912E0,1.6364744E0,1.7418462E0],"tree_param":{"num_deleted":"0","num_feature":"29","num_nodes":"13","size_leaf_vector":"1"}},{"base_weights":[-1.8518962E-2,-2.0650817E-1,1.9644977E-1,8.584289E-2,-1.5354082E-1,1.4441088E-1,-6.286967E-2,-5.7667453E-2,9.334509E-2,8.2456455E-2,-8.902759E-2],"categories":[],"categories_nodes":[],"categories_segments":[],"categories_sizes":[],"default_left":[0,0,0,0,0,0,0,0,0,0,0],"id":23,"left_children":[1,3,5,7,-1,-1,9,-1,-1,-1,-1],"loss_changes":[5.005245E-1,6.293824E-1,4.6044692E-1,3.2338846E-1,0E0,0E0,3.9220002E-1,0E0,0E0,0E0,0E0],"parents":[2147483647,0,0,1,1,2,2,3,3,6,6],"right_children":[2,4,6,8,-1,-1,10,-1,-1,-1,-1],"split_conditions":[4.6928832E-1,-1.096624E-1,-6.623143E-1,-3.1326994E-1,-1.5354082E-1,1.4441088E-1,-8.547368E-1,-5.7667453E-2,9.334509E-2,8.2456455E-2,-8.902759E-2],"split_indices":[10,7,8,7,0,0,9,0,0,0,0],"split_type":[0,0,0,0,0,0,0,0,0,0,0],"sum_hessian":[1.0381723E1,5.5594053E0,4.822318E0,3.2070973E0,2.3523078E0,1.8897402E0,2.932578E0,1.5011973E0,1.7059001E0,1.1282654E0,1.8043127E0],"tree_param":{"num_deleted":"0","num_feature":"29","num_nodes":"11","size_leaf_vector":"1"}},{"base_weights":[-1.2617632E-2,1.1637927E-1,-9.945406E-2,1.2087253E-2,-1.2888502E-1,1.0742159E-1,-1.1116206E-1,2.1086068E-1,-2.9099673E-1,-1.1222093E-2,1.0705901E-1,3.2141604E-2,-1.6280763E-1],"categories":[],"categories_nodes":[],"categories_segments":[],"categories_sizes":[],"default_left":[0,0,0,0,0,0,0,0,0,0,0,0,0],"id":24,"left_children":[1,-1,3,5,-1,-1,7,9,11,-1,-1,-1,-1],"loss_changes":[4.1747355E-1,0E0,3.6419457E-1,3.9200068E-1,0E0,0E0,4.582237E-1,1.2338051E-1,5.4089713E-1,0E0,0E0,0E0,0E0],"parents":[2147483647,0,0,2,2,3,3,6,6,7,7,8,8],"right_children":[2,-1,4,6,-1,-1,8,10,12,-1,-1,-1,-1],"split_conditions":[-1.668931E0,1.1637927E-1,2.7855474E-1,-9.600413E-1,-1.2888502E-1,1.0742159E-1,-3.881473E-1,-2.2061811E-1,7.7E0,-1.1222093E-2,1.0705901E-1,3.2141604E-2,-1.6280763E-1],"split_indices":[6,0,7,9,0,0,23,2,28,0,0,0,0],"split_type":[0,0,0,0,0,0,0,0,0,0,0,0,0],"sum_hessian":[9.89328E0,1.144891E0,8.748388E0,7.259311E0,1.4890773E0,1.4062972E0,5.853014E0,2.035536E0,3.817478E0,1.029216E0,1.00632E0,1.7010553E0,2.1164227E0],"tree_param":{"num_deleted":"0","num_feature":"29","num_nodes":"13","size_leaf_vector":"1"}},{"base_weights":[-5.2695144E-3,-1.03357434E-1,9.054555E-2,1.10773556E-1,-3.2366846E-2,-1.0656915E-1,1.4245565E-1,3.253922E-1,-9.435793E-2,-1.34210745E-2,1.4581914E-1],"categories":[],"categories_nodes":[],"categories_segments":[],"categories_sizes":[],"default_left":[0,0,0,0,0,0,0,0,0,0,0],"id":25,"left_children":[1,-1,3,-1,5,-1,7,9,-1,-1,-1],"loss_changes":[3.691375E-1,0E0,3.1678128E-1,0E0,4.510548E-1,0E0,5.467789E-1,2.7674925E-1,0E0,0E0,0E0],"parents":[2147483647,0,0,2,2,4,4,6,6,7,7],"right_children":[2,-1,4,-1,6,-1,8,10,-1,-1,-1],"split_conditions":[-3.0021092E-1,-1.03357434E-1,-9.600413E-1,1.10773556E-1,-5.86957E-2,-1.0656915E-1,3.6425438E-2,2.6541573E-3,-9.435793E-2,-1.34210745E-2,1.4581914E-1],"split_indices":[3,0,9,0,4,0,19,26,0,0,0],"split_type":[0,0,0,0,0,0,0,0,0,0,0],"sum_hessian":[9.396381E0,1.4977009E0,7.8986807E0,1.8040122E0,6.0946684E0,1.7783843E0,4.316284E0,3.288003E0,1.0282811E0,1.2136824E0,2.0743208E0],"tree_param":{"num_deleted":"0","num_feature":"29","num_nodes":"11","size_leaf_vector":"1"}},{"base_weights":[-9.875989E-3,1.8332517E-1,-1.6706984E-1,3.5867584E-1,-5.2130044E-2,-3.832149E-1,5.182055E-2,2.0318188E-2,1.417885E-1,-1.3719982E-1,-3.435313E-2,8.722526E-2,-3.9979614E-2],"categories":[],"categories_nodes":[],"categories_segments":[],"categories_sizes":[],"default_left":[0,0,0,0,0,0,0,0,0,0,0,0,0],"id":26,"left_children":[1,3,5,7,-1,9,11,-1,-1,-1,-1,-1,-1],"loss_changes":[3.3294985E-1,3.7181526E-1,3.0429757E-1,8.8712275E-2,0E0,1.024738E-2,2.097958E-1,0E0,0E0,0E0,0E0,0E0,0E0],"parents":[2147483647,0,0,1,1,2,2,3,3,5,5,6,6],"right_children":[2,4,6,8,-1,10,12,-1,-1,-1,-1,-1,-1],"split_conditions":[-2.201335E-1,4.330969E-1,-6.886748E-2,-6.137423E-1,-5.2130044E-2,4.320631E-1,1.99E0,2.0318188E-2,1.417885E-1,-1.3719982E-1,-3.435313E-2,8.722526E-2,-3.9979614E-2],"split_indices":[11,2,18,12,0,10,28,0,0,0,0,0,0],"split_type":[0,0,0,0,0,0,0,0,0,0,0,0,0],"sum_hessian":[8.954608E0,3.94263E0,5.0119777E0,2.6412191E0,1.301411E0,2.144076E0,2.8679013E0,1.1920274E0,1.4491916E0,1.1303076E0,1.0137687E0,1.0026579E0,1.8652434E0],"tree_param":{"num_deleted":"0","num_feature":"29","num_nodes":"13","size_leaf_vector":"1"}},{"base_weights":[-8.603929E-3,-1.6768916E-1,1.6838856E-1,6.470441E-2,-1.1993353E-1,-4.8006482E-2,1.2816666E-1,7.668272E-2,-5.470777E-2,7.681046E-2,-1.2364676E-1],"categories":[],"categories_nodes":[],"categories_segments":[],"categories_sizes":[],"default_left":[0,0,0,0,0,0,0,0,0,0,0],"id":27,"left_children":[1,3,5,7,-1,9,-1,-1,-1,-1,-1],"loss_changes":[3.0016667E-1,3.272171E-1,3.0450946E-1,2.1888255E-1,0E0,5.108183E-1,0E0,0E0,0E0,0E0,0E0],"parents":[2147483647,0,0,1,1,2,2,3,3,5,5],"right_children":[2,4,6,8,-1,10,-1,-1,-1,-1,-1],"split_conditions":[4.6928832E-1,-1.3284534E-1,1.921863E0,-1.20929755E-1,-1.1993353E-1,-2.622648E-1,1.2816666E-1,7.668272E-2,-5.470777E-2,7.681046E-2,-1.2364676E-1],"split_indices":[10,7,3,25,0,12,0,0,0,0,0],"split_type":[0,0,0,0,0,0,0,0,0,0,0],"sum_hessian":[8.6576605E0,4.587166E0,4.0704947E0,2.6524487E0,1.9347173E0,2.660631E0,1.409864E0,1.4767694E0,1.1756791E0,1.6117877E0,1.0488431E0],"tree_param":{"num_deleted":"0","num_feature":"29","num_nodes":"11","size_leaf_vector":"1"}},{"base_weights":[-8.6928895E-3,1.850829E-1,-1.4833875E-1,-4.0078122E-2,3.340155E-1,9.961208E-2,-1.2894323E-1,2.4978165E-2,1.3005821E-1,8.3485976E-2,-5.4394845E-2],"categories":[],"categories_nodes":[],"categories_segments":[],"categories_sizes":[],"default_left":[0,0,0,0,0,0,0,0,0,0,0],"id":28,"left_children":[1,3,5,-1,7,9,-1,-1,-1,-1,-1],"loss_changes":[2.7851638E-1,2.5016576E-1,4.5787686E-1,0E0,4.4680297E-2,2.4991795E-1,0E0,0E0,0E0,0E0,0E0],"parents":[2147483647,0,0,1,1,2,2,4,4,5,5],"right_children":[2,4,6,-1,8,10,-1,-1,-1,-1,-1],"split_conditions":[-7.992245E-1,-2.8961658E-1,-1.3284534E-1,-4.0078122E-2,-8.8342085E-2,6.2652645E-3,-1.2894323E-1,2.4978165E-2,1.3005821E-1,8.3485976E-2,-5.4394845E-2],"split_indices":[13,25,7,0,19,24,0,0,0,0,0],"split_type":[0,0,0,0,0,0,0,0,0,0,0],"sum_hessian":[8.277957E0,3.3307538E0,4.9472036E0,1.093641E0,2.2371128E0,2.9737275E0,1.973476E0,1.1573797E0,1.079733E0,1.823413E0,1.1503145E0],"tree_param":{"num_deleted":"0","num_feature":"29","num_nodes":"11","size_leaf_vector":"1"}},{"base_weights":[-5.1173945E-3,-8.892253E-2,7.839199E-2,2.0115359E-1,-1.282671E-1,-3.5603236E-2,3.2809258E-1,5.5479273E-2,-1.0175777E-1,7.650168E-3,1.2778334E-1],"categories":[],"categories_nodes":[],"categories_segments":[],"categories_sizes":[],"default_left":[0,0,0,0,0,0,0,0,0,0,0],"id":29,"left_children":[1,-1,3,5,7,-1,9,-1,-1,-1,-1],"loss_changes":[2.4173488E-1,0E0,2.2296993E-1,2.526881E-1,2.9439494E-1,0E0,1.0860127E-1,0E0,0E0,0E0,0E0],"parents":[2147483647,0,0,2,2,3,3,4,4,6,6],"right_children":[2,-1,4,6,8,-1,10,-1,-1,-1,-1],"split_conditions":[-3.0021092E-1,-8.892253E-2,5.4006666E-2,1.18E0,-4.166948E-1,-3.5603236E-2,6.8532884E-2,5.5479273E-2,-1.0175777E-1,7.650168E-3,1.2778334E-1],"split_indices":[3,0,13,28,15,0,15,0,0,0,0],"split_type":[0,0,0,0,0,0,0,0,0,0,0],"sum_hessian":[7.982283E0,1.2105018E0,6.7717814E0,4.2649283E0,2.506853E0,1.2302687E0,3.0346596E0,1.058441E0,1.4484122E0,1.0495842E0,1.9850755E0],"tree_param":{"num_deleted":"0","num_feature":"29","num_nodes":"11","size_leaf_vector":"1"}},{"base_weights":[-7.801726E-3,-1.20526224E-1,2.2374213E-1,-3.3354133E-1,1.172568E-1,1.2879704E-1,-2.3080392E-2,-1.6085932E-1,3.1300668E-2,8.794144E-2,-4.4706922E-2],"categories":[],"categories_nodes":[],"categories_segments":[],"categories_sizes":[],"default_left":[0,0,0,0,0,0,0,0,0,0,0],"id":30,"left_children":[1,3,5,7,9,-1,-1,-1,-1,-1,-1],"loss_changes":[2.5556606E-1,3.703956E-1,2.3193745E-1,3.8516796E-1,2.2307914E-1,0E0,0E0,0E0,0E0,0E0,0E0],"parents":[2147483647,0,0,1,1,2,2,3,3,4,4],"right_children":[2,4,6,8,10,-1,-1,-1,-1,-1,-1],"split_conditions":[1.921863E0,2.995E1,4.6E0,8.2138807E-1,2.5002716E-2,1.2879704E-1,-2.3080392E-2,-1.6085932E-1,3.1300668E-2,8.794144E-2,-4.4706922E-2],"split_indices":[3,28,28,14,24,0,0,0,0,0,0],"split_type":[0,0,0,0,0,0,0,0,0,0,0],"sum_hessian":[7.758371E0,5.540506E0,2.2178655E0,2.7100377E0,2.830468E0,1.0631216E0,1.1547439E0,1.6991185E0,1.0109192E0,1.6438313E0,1.1866367E0],"tree_param":{"num_deleted":"0","num_feature":"29","num_nodes":"11","size_leaf_vector":"1"}},{"base_weights":[-4.4047968E-3,1.6846849E-1,-1.4601465E-1,1.18483596E-1,-4.4362053E-2,-3.231152E-1,2.7728079E-2,7.464845E-2,-9.111479E-2,-6.514006E-3,-1.3626911E-1],"categories":[],"categories_nodes":[],"categories_segments":[],"categories_sizes":[],"default_left":[0,0,0,0,0,0,0,0,0,0,0],"id":31,"left_children":[1,3,5,-1,7,9,-1,-1,-1,-1,-1],"loss_changes":[2.3132305E-1,2.2318408E-1,2.4850704E-1,0E0,3.1119633E-1,1.1633518E-1,0E0,0E0,0E0,0E0,0E0],"parents":[2147483647,0,0,1,1,2,2,4,4,5,5],"right_children":[2,4,6,-1,8,10,-1,-1,-1,-1,-1],"split_conditions":[-2.201335E-1,-3.6178762E-1,5.6543246E-2,1.18483596E-1,-7.3049533E-1,-1.195927E-1,2.7728079E-2,7.464845E-2,-9.111479E-2,-6.514006E-3,-1.3626911E-1],"split_indices":[11,15,2,0,18,21,0,0,0,0,0],"split_type":[0,0,0,0,0,0,0,0,0,0,0],"sum_hessian":[7.4444227E0,3.2667725E0,4.17765E0,1.1680984E0,2.098674E0,2.193404E0,1.9842461E0,1.0041281E0,1.0945461E0,1.018265E0,1.175139E0],"tree_param":{"num_deleted":"0","num_feature":"29","num_nodes":"11","size_leaf_vector":"1"}},{"base_weights":[-5.2969432E-3,1.7534134E-1,-1.3998573E-1,-2.1167958E-2,8.9055106E-2,-2.784098E-1,6.65961E-2,2.1305287E-2,-4.1887835E-1,-1.6427016E-1,-2.1095013E-2],"categories":[],"categories_nodes":[],"categories_segments":[],"categories_sizes":[],"default_left":[0,0,0,0,0,0,0,0,0,0,0],"id":32,"left_children":[1,3,5,-1,-1,7,-1,-1,9,-1,-1],"loss_changes":[2.2372471E-1,1.3869253E-1,3.246498E-1,0E0,0E0,2.3777908E-1,0E0,0E0,1.0360134E-1,0E0,0E0],"parents":[2147483647,0,0,1,1,2,2,5,5,8,8],"right_children":[2,4,6,-1,-1,8,-1,-1,10,-1,-1],"split_conditions":[-7.992245E-1,-3.4532424E-2,7.600857E-1,-2.1167958E-2,8.9055106E-2,-4.114763E-1,6.65961E-2,2.1305287E-2,2.413245E0,-1.6427016E-1,-2.1095013E-2],"split_indices":[13,24,21,0,0,25,0,0,3,0,0],"split_type":[0,0,0,0,0,0,0,0,0,0,0],"sum_hessian":[7.1865945E0,2.9407597E0,4.245835E0,1.111232E0,1.8295276E0,3.2383087E0,1.0075263E0,1.0702913E0,2.1680171E0,1.166436E0,1.0015813E0],"tree_param":{"num_deleted":"0","num_feature":"29","num_nodes":"11","size_leaf_vector":"1"}},{"base_weights":[-9.026322E-3,-1.06643945E-1,6.247053E-2,5.5970855E-2,-2.37473E-1,2.160389E-2,-3.8054177E-1,-2.3658736E-2,-1.4486071E-1],"categories":[],"categories_nodes":[],"categories_segments":[],"categories_sizes":[],"default_left":[0,0,0,0,0,0,0,0,0],"id":33,"left_children":[1,3,-1,-1,5,-1,7,-1,-1],"loss_changes":[1.907125E-1,2.799695E-1,0E0,0E0,2.3497534E-1,0E0,6.579855E-2,0E0,0E0],"parents":[2147483647,0,0,1,1,4,4,6,6],"right_children":[2,4,-1,-1,6,-1,8,-1,-1],"split_conditions":[7.3199874E-1,-8.785425E-1,6.247053E-2,5.5970855E-2,1.98E0,2.160389E-2,-6.996831E-1,-2.3658736E-2,-1.4486071E-1],"split_indices":[18,18,0,0,28,0,9,0,0],"split_type":[0,0,0,0,0,0,0,0,0],"sum_hessian":[6.9451704E0,5.143356E0,1.8018146E0,1.4554199E0,3.687936E0,1.3228992E0,2.3650367E0,1.0475013E0,1.3175355E0],"tree_param":{"num_deleted":"0","num_feature":"29","num_nodes":"9","size_leaf_vector":"1"}},{"base_weights":[-1.1374072E-2,-1.4415379E-1,1.4039403E-1,-1.0491941E-1,8.17076E-2,8.480156E-2,-3.530585E-2,4.5496494E-2,-8.529009E-3],"categories":[],"categories_nodes":[],"categories_segments":[],"categories_sizes":[],"default_left":[0,0,0,0,0,0,0,0,0],"id":34,"left_children":[1,3,5,-1,7,-1,-1,-1,-1],"loss_changes":[1.7667392E-1,2.4373496E-1,1.8488094E-1,0E0,2.7566468E-2,0E0,0E0,0E0,0E0],"parents":[2147483647,0,0,1,1,2,2,4,4],"right_children":[2,4,6,-1,8,-1,-1,-1,-1],"split_conditions":[4.6928832E-1,6.957902E-2,4.0170068E-1,-1.0491941E-1,-4.2433444E-2,8.480156E-2,-3.530585E-2,4.5496494E-2,-8.529009E-3],"split_indices":[10,12,14,0,23,0,0,0,0],"split_type":[0,0,0,0,0,0,0,0,0],"sum_hessian":[6.762888E0,3.6338534E0,3.1290348E0,1.6152393E0,2.018614E0,1.9556252E0,1.1734096E0,1.004015E0,1.0145992E0],"tree_param":{"num_deleted":"0","num_feature":"29","num_nodes":"9","size_leaf_vector":"1"}},{"base_weights":[-1.0837824E-2,1.5107216E-1,-1.382506E-1,8.787967E-2,-3.673909E-2,-9.949262E-2,5.597482E-2,-3.1123301E-2,5.386327E-2],"categories":[],"categories_nodes":[],"categories_segments":[],"categories_sizes":[],"default_left":[0,0,0,0,0,0,0,0,0],"id":35,"left_children":[1,3,5,-1,-1,-1,7,-1,-1],"loss_changes":[1.783357E-1,1.8484049E-1,1.9860828E-1,0E0,0E0,0E0,8.271273E-2,0E0,0E0],"parents":[2147483647,0,0,1,1,2,2,6,6],"right_children":[2,4,6,-1,-1,-1,8,-1,-1],"split_conditions":[-2.201335E-1,3.3589086E-1,-6.886748E-2,8.787967E-2,-3.673909E-2,-9.949262E-2,5.92768E-3,-3.1123301E-2,5.386327E-2],"split_indices":[11,2,18,0,0,0,27,0,0],"split_type":[0,0,0,0,0,0,0,0,0],"sum_hessian":[6.632304E0,2.8389778E0,3.7933264E0,1.8227566E0,1.0162213E0,1.5462276E0,2.247099E0,1.0501579E0,1.1969409E0],"tree_param":{"num_deleted":"0","num_feature":"29","num_nodes":"9","size_leaf_vector":"1"}},{"base_weights":[-1.1334258E-2,9.647845E-2,-1.987142E-1,-3.6284804E-2,9.707816E-2,2.42375E-2,-1.1226653E-1,1.6319494E-1,-9.0464085E-2,-1.8396713E-2,9.1449596E-2],"categories":[],"categories_nodes":[],"categories_segments":[],"categories_sizes":[],"default_left":[0,0,0,0,0,0,0,0,0,0,0],"id":36,"left_children":[1,3,5,7,-1,-1,-1,9,-1,-1,-1],"loss_changes":[1.7027839E-1,1.75203E-1,1.8027839E-1,2.7782226E-1,0E0,0E0,0E0,1.1774404E-1,0E0,0E0,0E0],"parents":[2147483647,0,0,1,1,2,2,3,3,7,7],"right_children":[2,4,6,8,-1,-1,-1,10,-1,-1,-1],"split_conditions":[1.4704837E-1,1.4011657E0,5.8260363E-2,-6.997456E-2,9.707816E-2,2.42375E-2,-1.1226653E-1,2.856E1,-9.0464085E-2,-1.8396713E-2,9.1449596E-2],"split_indices":[13,3,1,22,0,0,0,28,0,0,0],"split_type":[0,0,0,0,0,0,0,0,0,0,0],"sum_hessian":[6.4798155E0,4.421143E0,2.0586724E0,3.3203979E0,1.1007452E0,1.0022309E0,1.0564415E0,2.1148148E0,1.205583E0,1.0374061E0,1.0774086E0],"tree_param":{"num_deleted":"0","num_feature":"29","num_nodes":"11","size_leaf_vector":"1"}},{"base_weights":[-9.685233E-3,-6.52805E-2,8.2767546E-2,8.325666E-2,-9.5910884E-2,-9.246271E-2,4.9613584E-2],"categories":[],"categories_nodes":[],"categories_segments":[],"categories_sizes":[],"default_left":[0,0,0,0,0,0,0],"id":37,"left_children":[1,-1,3,-1,5,-1,-1],"loss_changes":[1.5760235E-1,0E0,2.267493E-1,0E0,2.5857484E-1,0E0,0E0],"parents":[2147483647,0,0,2,2,4,4],"right_children":[2,-1,4,-1,6,-1,-1],"split_conditions":[-7.355149E-2,-6.52805E-2,-5.296655E-2,8.325666E-2,2.2371829E-1,-9.246271E-2,4.9613584E-2],"split_indices":[26,0,21,0,18,0,0],"split_type":[0,0,0,0,0,0,0],"sum_hessian":[6.2619243E0,1.5107523E0,4.751172E0,2.0086281E0,2.742544E0,1.4140537E0,1.3284901E0],"tree_param":{"num_deleted":"0","num_feature":"29","num_nodes":"7","size_leaf_vector":"1"}},{"base_weights":[-1.0676717E-2,1.3789994E-1,-1.3266388E-1,7.9349376E-2,-2.3447203E-2,4.3967016E-2,-2.6059094E-1,1.4676672E-2,-1.255336E-1],"categories":[],"categories_nodes":[],"categories_segments":[],"categories_sizes":[],"default_left":[0,0,0,0,0,0,0,0,0],"id":38,"left_children":[1,3,5,-1,-1,-1,7,-1,-1],"loss_changes":[1.4737888E-1,1.2191535E-1,1.9609816E-1,0E0,0E0,0E0,1.8618108E-1,0E0,0E0],"parents":[2147483647,0,0,1,1,2,2,6,6],"right_children":[2,4,6,-1,-1,-1,8,-1,-1],"split_conditions":[-6.5420216E-1,5.327727E-1,2.68E0,7.9349376E-2,-2.3447203E-2,4.3967016E-2,-4.166948E-1,1.4676672E-2,-1.255336E-1],"split_indices":[13,15,28,0,0,0,15,0,0],"split_type":[0,0,0,0,0,0,0,0,0],"sum_hessian":[6.1221237E0,2.7014246E0,3.4206991E0,1.5619833E0,1.1394413E0,1.0290377E0,2.3916614E0,1.0408646E0,1.3507968E0],"tree_param":{"num_deleted":"0","num_feature":"29","num_nodes":"9","size_leaf_vector":"1"}},{"base_weights":[-9.974939E-3,-1.00111E-1,5.7343356E-2,8.6229555E-2,-9.466361E-2,7.3091775E-2,-2.1884965E-2],"categories":[],"categories_nodes":[],"categories_segments":[],"categories_sizes":[],"default_left":[0,0,0,0,0,0,0],"id":39,"left_children":[1,3,-1,5,-1,-1,-1],"loss_changes":[1.4553139E-1,2.4683286E-1,0E0,1.1095552E-1,0E0,0E0,0E0],"parents":[2147483647,0,0,1,1,3,3],"right_children":[2,4,-1,6,-1,-1,-1],"split_conditions":[2.4631987E0,-6.997456E-2,5.7343356E-2,-7.1960844E-2,-9.466361E-2,7.3091775E-2,-2.1884965E-2],"split_indices":[3,22,0,21,0,0,0],"split_type":[0,0,0,0,0,0,0],"sum_hessian":[5.972358E0,4.470871E0,1.5014871E0,2.7188954E0,1.7519757E0,1.1002666E0,1.6186289E0],"tree_param":{"num_deleted":"0","num_feature":"29","num_nodes":"7","size_leaf_vector":"1"}},{"base_weights":[-5.422344E-3,1.356953E-1,-1.1520468E-1,-1.1097806E-2,7.358428E-2,8.1789054E-2,-9.798969E-2,5.9833046E-2,-2.2284077E-2],"categories":[],"categories_nodes":[],"categories_segments":[],"categories_sizes":[],"default_left":[0,0,0,0,0,0,0,0,0],"id":40,"left_children":[1,3,5,-1,-1,7,-1,-1,-1],"loss_changes":[1.2170269E-1,7.445546E-2,2.0962921E-1,0E0,0E0,7.1245566E-2,0E0,0E0,0E0],"parents":[2147483647,0,0,1,1,2,2,5,5],"right_children":[2,4,6,-1,-1,8,-1,-1,-1],"split_conditions":[-7.992245E-1,-8.8342085E-2,-1.3284534E-1,-1.1097806E-2,7.358428E-2,3.3337364E-1,-9.798969E-2,5.9833046E-2,-2.2284077E-2],"split_indices":[13,19,7,0,0,13,0,0,0],"split_type":[0,0,0,0,0,0,0,0,0],"sum_hessian":[5.8466578E0,2.4549494E0,3.3917084E0,1.2102445E0,1.2447048E0,2.0732005E0,1.3185078E0,1.0236189E0,1.0495815E0],"tree_param":{"num_deleted":"0","num_feature":"29","num_nodes":"9","size_leaf_vector":"1"}},{"base_weights":[-3.874885E-3,-7.869215E-2,6.369475E-2,6.358383E-2,-1.9472189E-1,-3.0223677E-1,2.6309736E-2,-1.6641848E-2,-1.3728909E-1],"categories":[],"categories_nodes":[],"categories_segments":[],"categories_sizes":[],"default_left":[0,0,0,0,0,0,0,0,0],"id":41,"left_children":[1,3,-1,-1,5,7,-1,-1,-1],"loss_changes":[1.2556188E-1,2.3447546E-1,0E0,0E0,1.6666071E-1,1.1143017E-1,0E0,0E0,0E0],"parents":[2147483647,0,0,1,1,4,4,5,5],"right_children":[2,4,-1,-1,6,8,-1,-1,-1],"split_conditions":[2.946348E-1,-8.785425E-1,6.369475E-2,6.358383E-2,5.9214395E-1,-1.4209062E-1,2.6309736E-2,-1.6641848E-2,-1.3728909E-1],"split_indices":[22,18,0,0,11,22,0,0,0],"split_type":[0,0,0,0,0,0,0,0,0],"sum_hessian":[5.72987E0,4.7292285E0,1.0006413E0,1.1134756E0,3.6157532E0,2.5679834E0,1.0477695E0,1.516606E0,1.0513774E0],"tree_param":{"num_deleted":"0","num_feature":"29","num_nodes":"9","size_leaf_vector":"1"}},{"base_weights":[-3.7886165E-3,-5.907507E-2,8.493405E-2,7.822129E-2,-9.1141E-2,-8.472856E-2,5.1738217E-2],"categories":[],"categories_nodes":[],"categories_segments":[],"categories_sizes":[],"default_left":[0,0,0,0,0,0,0],"id":42,"left_children":[1,-1,3,-1,5,-1,-1],"loss_changes":[1.2954699E-1,0E0,1.8504839E-1,0E0,2.1733253E-1,0E0,0E0],"parents":[2147483647,0,0,2,2,4,4],"right_children":[2,-1,4,-1,6,-1,-1],"split_conditions":[-7.355149E-2,-5.907507E-2,-6.767162E-2,7.822129E-2,3.1101564E-1,-8.472856E-2,5.1738217E-2],"split_indices":[26,0,0,0,24,0,0],"split_type":[0,0,0,0,0,0,0],"sum_hessian":[5.5843587E0,1.3740064E0,4.2103524E0,1.8661988E0,2.3441536E0,1.3170153E0,1.0271385E0],"tree_param":{"num_deleted":"0","num_feature":"29","num_nodes":"7","size_leaf_vector":"1"}},{"base_weights":[-5.0141215E-3,5.548339E-2,-9.290816E-2,-8.7849714E-2,3.4019932E-2,-6.1065156E-2,5.943774E-2],"categories":[],"categories_nodes":[],"categories_segments":[],"categories_sizes":[],"default_left":[0,0,0,0,0,0,0],"id":43,"left_children":[1,-1,3,-1,5,-1,-1],"loss_changes":[1.2516527E-1,0E0,1.3905528E-1,0E0,1.9657128E-1,0E0,0E0],"parents":[2147483647,0,0,2,2,4,4],"right_children":[2,-1,4,-1,6,-1,-1],"split_conditions":[-5.556986E-1,5.548339E-2,-1.543569E-2,-8.7849714E-2,5.8949348E-2,-6.1065156E-2,5.943774E-2],"split_indices":[11,0,27,0,15,0,0],"split_type":[0,0,0,0,0,0,0],"sum_hessian":[5.4674673E0,1.3802531E0,4.087214E0,1.0796252E0,3.0075889E0,1.1305579E0,1.8770308E0],"tree_param":{"num_deleted":"0","num_feature":"29","num_nodes":"7","size_leaf_vector":"1"}},{"base_weights":[-9.219349E-3,-8.999633E-2,4.893226E-2,6.967615E-2,-7.871431E-2,-3.235772E-2,6.3451834E-2],"categories":[],"categories_nodes":[],"categories_segments":[],"categories_sizes":[],"default_left":[0,0,0,0,0,0,0],"id":44,"left_children":[1,3,-1,5,-1,-1,-1],"loss_changes":[1.03147395E-1,1.551247E-1,0E0,1.07696965E-1,0E0,0E0,0E0],"parents":[2147483647,0,0,1,1,3,3],"right_children":[2,4,-1,6,-1,-1,-1],"split_conditions":[2.4631987E0,-8.9451805E-2,4.893226E-2,2.9E1,-7.871431E-2,-3.235772E-2,6.3451834E-2],"split_indices":[3,22,0,28,0,0,0],"split_type":[0,0,0,0,0,0,0],"sum_hessian":[5.355461E0,3.971573E0,1.3838881E0,2.3711185E0,1.6004544E0,1.1593828E0,1.2117357E0],"tree_param":{"num_deleted":"0","num_feature":"29","num_nodes":"7","size_leaf_vector":"1"}},{"base_weights":[-6.545299E-3,-5.024881E-2,7.891407E-2,1.9631E-1,-4.49058E-2,9.781901E-2,-6.9141113E-3],"categories":[],"categories_nodes":[],"categories_segments":[],"categories_sizes":[],"default_left":[0,0,0,0,0,0,0],"id":45,"left_children":[1,-1,3,5,-1,-1,-1],"loss_changes":[9.941666E-2,0E0,1.574802E-1,1.09587505E-1,0E0,0E0,0E0],"parents":[2147483647,0,0,2,2,3,3],"right_children":[2,-1,4,6,-1,-1,-1],"split_conditions":[2.9897377E-1,-5.024881E-2,6.118855E-1,7.7E0,-4.49058E-2,9.781901E-2,-6.9141113E-3],"split_indices":[3,0,17,28,0,0,0],"split_type":[0,0,0,0,0,0,0],"sum_hessian":[5.2668443E0,1.4937072E0,3.7731373E0,2.5862422E0,1.186895E0,1.3193655E0,1.2668768E0],"tree_param":{"num_deleted":"0","num_feature":"29","num_nodes":"7","size_leaf_vector":"1"}},{"base_weights":[-5.072713E-3,1.3531563E-1,-1.1394495E-1,-8.757237E-3,7.0015706E-2,2.5351562E-2,-8.870054E-2],"categories":[],"categories_nodes":[],"categories_segments":[],"categories_sizes":[],"default_left":[0,0,0,0,0,0,0],"id":46,"left_children":[1,3,5,-1,-1,-1,-1],"loss_changes":[1.0989007E-1,5.774245E-2,1.7010608E-1,0E0,0E0,0E0,0E0],"parents":[2147483647,0,0,1,1,2,2],"right_children":[2,4,6,-1,-1,-1,-1],"split_conditions":[-7.992245E-1,-8.8342085E-2,6.2652645E-3,-8.757237E-3,7.0015706E-2,2.5351562E-2,-8.870054E-2],"split_indices":[13,19,24,0,0,0,0],"split_type":[0,0,0,0,0,0,0],"sum_hessian":[5.1809154E0,2.156837E0,3.0240786E0,1.0678809E0,1.0889562E0,1.7012342E0,1.3228443E0],"tree_param":{"num_deleted":"0","num_feature":"29","num_nodes":"7","size_leaf_vector":"1"}},{"base_weights":[-4.2254752E-3,5.204209E-2,-8.186556E-2,-8.130569E-2,5.712483E-2,6.441018E-2,-3.9203018E-2],"categories":[],"categories_nodes":[],"categories_segments":[],"categories_sizes":[],"default_left":[0,0,0,0,0,0,0],"id":47,"left_children":[1,-1,3,-1,5,-1,-1],"loss_changes":[9.831225E-2,0E0,1.4488748E-1,0E0,1.3646154E-1,0E0,0E0],"parents":[2147483647,0,0,2,2,4,4],"right_children":[2,-1,4,-1,6,-1,-1],"split_conditions":[-9.600413E-1,5.204209E-2,-5.86957E-2,-8.130569E-2,5.2053934E-1,6.441018E-2,-3.9203018E-2],"split_indices":[9,0,4,0,1,0,0],"split_type":[0,0,0,0,0,0,0],"sum_hessian":[5.0964956E0,1.1743548E0,3.922141E0,1.2589338E0,2.6632073E0,1.3702563E0,1.2929509E0],"tree_param":{"num_deleted":"0","num_feature":"29","num_nodes":"7","size_leaf_vector":"1"}},{"base_weights":[-3.878874E-3,-1.1503801E-1,1.2375141E-1,3.0350065E-2,-8.178435E-2,-2.170173E-2,7.530518E-2],"categories":[],"categories_nodes":[],"categories_segments":[],"categories_sizes":[],"default_left":[0,0,0,0,0,0,0],"id":48,"left_children":[1,3,5,-1,-1,-1,-1],"loss_changes":[9.944479E-2,1.5460113E-1,9.9953204E-2,0E0,0E0,0E0,0E0],"parents":[2147483647,0,0,1,1,2,2],"right_children":[2,4,6,-1,-1,-1,-1],"split_conditions":[4.6928832E-1,-7.1960844E-2,1.8165162E-1,3.0350065E-2,-8.178435E-2,-2.170173E-2,7.530518E-2],"split_indices":[10,21,21,0,0,0,0],"split_type":[0,0,0,0,0,0,0],"sum_hessian":[5.005995E0,2.7283823E0,2.2776127E0,1.3011311E0,1.4272512E0,1.0662818E0,1.2113308E0],"tree_param":{"num_deleted":"0","num_feature":"29","num_nodes":"7","size_leaf_vector":"1"}},{"base_weights":[-2.5367427E-3,1.1721351E-1,-1.03155814E-1,6.3158415E-2,-1.0091724E-2,-7.444069E-2,1.3697704E-2],"categories":[],"categories_nodes":[],"categories_segments":[],"categories_sizes":[],"default_left":[0,0,0,0,0,0,0],"id":49,"left_children":[1,3,5,-1,-1,-1,-1],"loss_changes":[8.349313E-2,5.175899E-2,9.228088E-2,0E0,0E0,0E0,0E0],"parents":[2147483647,0,0,1,1,2,2],"right_children":[2,4,6,-1,-1,-1,-1],"split_conditions":[-2.201335E-1,-2.717848E-1,-6.886748E-2,6.3158415E-2,-1.0091724E-2,-7.444069E-2,1.3697704E-2],"split_indices":[11,2,18,0,0,0,0],"split_type":[0,0,0,0,0,0,0],"sum_hessian":[4.92588E0,2.173819E0,2.752061E0,1.0986359E0,1.0751832E0,1.0559305E0,1.6961305E0],"tree_param":{"num_deleted":"0","num_feature":"29","num_nodes":"7","size_leaf_vector":"1"}},{"base_weights":[-3.1965226E-3,8.660284E-2,-4.574959E-2,-3.3416465E-2,1.9263743E-1,6.282458E-3,8.2690224E-2],"categories":[],"categories_nodes":[],"categories_segments":[],"categories_sizes":[],"default_left":[0,0,0,0,0,0,0],"id":50,"left_children":[1,3,-1,-1,5,-1,-1],"loss_changes":[9.188357E-2,1.1177535E-1,0E0,0E0,3.9372936E-2,0E0,0E0],"parents":[2147483647,0,0,1,1,4,4],"right_children":[2,4,-1,-1,6,-1,-1],"split_conditions":[1.4704837E-1,-2.8961658E-1,-4.574959E-2,-3.3416465E-2,5.129228E-1,6.282458E-3,8.2690224E-2],"split_indices":[13,25,0,0,3,0,0],"split_type":[0,0,0,0,0,0,0],"sum_hessian":[4.8682323E0,3.3020985E0,1.5661337E0,1.134059E0,2.1680393E0,1.1145916E0,1.0534478E0],"tree_param":{"num_deleted":"0","num_feature":"29","num_nodes":"7","size_leaf_vector":"1"}},{"base_weights":[-4.093076E-4,9.438701E-2,-3.6818832E-2,5.8643665E-2,-1.95183E-2],"categories":[],"categories_nodes":[],"categories_segments":[],"categories_sizes":[],"default_left":[0,0,0,0,0],"id":51,"left_children":[1,3,-1,-1,-1],"loss_changes":[7.892799E-2,7.4570745E-2,0E0,0E0,0E0],"parents":[2147483647,0,0,1,1],"right_children":[2,4,-1,-1,-1],"split_conditions":[-6.503621E-2,-1.20929755E-1,-3.6818832E-2,5.8643665E-2,-1.95183E-2],"split_indices":[7,25,0,0,0],"split_type":[0,0,0,0,0],"sum_hessian":[4.807766E0,2.8372777E0,1.9704882E0,1.5980948E0,1.2391828E0],"tree_param":{"num_deleted":"0","num_feature":"29","num_nodes":"5","size_leaf_vector":"1"}},{"base_weights":[1.5662213E-4,4.7102578E-2,-8.423147E-2,3.341403E-2,-1.8682462E-1,2.1943988E-2,-1.0536234E-1],"categories":[],"categories_nodes":[],"categories_segments":[],"categories_sizes":[],"default_left":[0,0,0,0,0,0,0],"id":52,"left_children":[1,-1,3,-1,5,-1,-1],"loss_changes":[8.961347E-2,0E0,1.09172404E-1,0E0,1.650823E-1,0E0,0E0],"parents":[2147483647,0,0,2,2,4,4],"right_children":[2,-1,4,-1,6,-1,-1],"split_conditions":[-4.8003933E-1,4.7102578E-2,-8.547368E-1,3.341403E-2,7.7E0,2.1943988E-2,-1.0536234E-1],"split_indices":[6,0,9,0,28,0,0],"split_type":[0,0,0,0,0,0,0],"sum_hessian":[4.7710686E0,1.3679357E0,3.4031327E0,1.1413339E0,2.2617989E0,1.0911591E0,1.1706398E0],"tree_param":{"num_deleted":"0","num_feature":"29","num_nodes":"7","size_leaf_vector":"1"}},{"base_weights":[-1.0116206E-3,-4.714546E-2,7.279386E-2,7.4627265E-2,-5.7860605E-2,-7.33864E-2,5.788457E-2],"categories":[],"categories_nodes":[],"categories_segments":[],"categories_sizes":[],"default_left":[0,0,0,0,0,0,0],"id":53,"left_children":[1,-1,3,-1,5,-1,-1],"loss_changes":[7.693817E-2,0E0,1.1883456E-1,0E0,2.0731926E-1,0E0,0E0],"parents":[2147483647,0,0,2,2,4,4],"right_children":[2,-1,4,-1,6,-1,-1],"split_conditions":[-7.355149E-2,-4.714546E-2,-6.202806E-1,7.4627265E-2,3.1101564E-1,-7.33864E-2,5.788457E-2],"split_indices":[26,0,0,0,24,0,0],"split_type":[0,0,0,0,0,0,0],"sum_hessian":[4.68367E0,1.1408557E0,3.5428143E0,1.1244652E0,2.418349E0,1.4003065E0,1.0180426E0],"tree_param":{"num_deleted":"0","num_feature":"29","num_nodes":"7","size_leaf_vector":"1"}},{"base_weights":[1.3636944E-3,-8.205162E-2,4.107101E-2,2.5553627E-2,-6.949924E-2],"categories":[],"categories_nodes":[],"categories_segments":[],"categories_sizes":[],"default_left":[0,0,0,0,0],"id":54,"left_children":[1,3,-1,-1,-1],"loss_changes":[7.445241E-2,1.2197945E-1,0E0,0E0,0E0],"parents":[2147483647,0,0,1,1],"right_children":[2,4,-1,-1,-1],"split_conditions":[1.4011657E0,-2.0112641E-1,4.107101E-2,2.5553627E-2,-6.949924E-2],"split_indices":[3,7,0,0,0],"split_type":[0,0,0,0,0],"sum_hessian":[4.5916147E0,3.0866344E0,1.5049803E0,1.6608636E0,1.4257708E0],"tree_param":{"num_deleted":"0","num_feature":"29","num_nodes":"5","size_leaf_vector":"1"}},{"base_weights":[2.4559186E-4,3.6503896E-2,-9.692299E-2,2.3004398E-2,-7.550247E-2],"categories":[],"categories_nodes":[],"categories_segments":[],"categories_sizes":[],"default_left":[0,0,0,0,0],"id":55,"left_children":[1,-1,3,-1,-1],"loss_changes":[7.718659E-2,0E0,1.1696067E-1,0E0,0E0],"parents":[2147483647,0,0,2,2],"right_children":[2,-1,4,-1,-1],"split_conditions":[-7.992245E-1,3.6503896E-2,6.2652645E-3,2.3004398E-2,-7.550247E-2],"split_indices":[13,0,24,0,0],"split_type":[0,0,0,0,0],"sum_hessian":[4.541982E0,1.9067789E0,2.6352031E0,1.4797138E0,1.1554892E0],"tree_param":{"num_deleted":"0","num_feature":"29","num_nodes":"5","size_leaf_vector":"1"}},{"base_weights":[-2.9848E-3,3.4886986E-2,-9.405775E-2,-6.448436E-2,2.88642E-2],"categories":[],"categories_nodes":[],"categories_segments":[],"categories_sizes":[],"default_left":[0,0,0,0,0],"id":56,"left_children":[1,-1,3,-1,-1],"loss_changes":[7.060228E-2,0E0,1.0503705E-1,0E0,0E0],"parents":[2147483647,0,0,2,2],"right_children":[2,-1,4,-1,-1],"split_conditions":[-7.939846E-2,3.4886986E-2,4.237967E-1,-6.448436E-2,2.88642E-2],"split_indices":[21,0,5,0,0],"split_type":[0,0,0,0,0],"sum_hessian":[4.492584E0,1.8252442E0,2.6673403E0,1.5517436E0,1.1155967E0],"tree_param":{"num_deleted":"0","num_feature":"29","num_nodes":"5","size_leaf_vector":"1"}},{"base_weights":[-2.398545E-3,3.295982E-2,-9.693007E-2,-6.464508E-2,2.002071E-2],"categories":[],"categories_nodes":[],"categories_segments":[],"categories_sizes":[],"default_left":[0,0,0,0,0],"id":57,"left_children":[1,-1,3,-1,-1],"loss_changes":[6.85307E-2,0E0,8.2139164E-2,0E0,0E0],"parents":[2147483647,0,0,2,2],"right_children":[2,-1,4,-1,-1],"split_conditions":[-2.201335E-1,3.295982E-2,5.6543246E-2,-6.464508E-2,2.002071E-2],"split_indices":[11,0,2,0,0],"split_type":[0,0,0,0,0],"sum_hessian":[4.4540524E0,1.9619025E0,2.4921498E0,1.2616494E0,1.2305005E0],"tree_param":{"num_deleted":"0","num_feature":"29","num_nodes":"5","size_leaf_vector":"1"}},{"base_weights":[-3.9965836E-3,4.5566075E-2,-7.444878E-2,3.514779E-2,-1.7456803E-1,2.3650363E-2,-9.930603E-2],"categories":[],"categories_nodes":[],"categories_segments":[],"categories_sizes":[],"default_left":[0,0,0,0,0,0,0],"id":58,"left_children":[1,-1,3,-1,5,-1,-1],"loss_changes":[7.08089E-2,0E0,1.0490866E-1,0E0,1.5665603E-1,0E0,0E0],"parents":[2147483647,0,0,2,2,4,4],"right_children":[2,-1,4,-1,6,-1,-1],"split_conditions":[-9.600413E-1,4.5566075E-2,-6.479053E-1,3.514779E-2,-2.1592416E-1,2.3650363E-2,-9.930603E-2],"split_indices":[9,0,8,0,23,0,0],"split_type":[0,0,0,0,0,0,0],"sum_hessian":[4.4178925E0,1.0153745E0,3.402518E0,1.109315E0,2.293203E0,1.0647528E0,1.2284502E0],"tree_param":{"num_deleted":"0","num_feature":"29","num_nodes":"7","size_leaf_vector":"1"}},{"base_weights":[-2.4508105E-3,3.4682803E-2,-9.730805E-2,1.5078199E-2,-6.676279E-2],"categories":[],"categories_nodes":[],"categories_segments":[],"categories_sizes":[],"default_left":[0,0,0,0,0],"id":59,"left_children":[1,-1,3,-1,-1],"loss_changes":[7.100039E-2,0E0,7.5893596E-2,0E0,0E0],"parents":[2147483647,0,0,2,2],"right_children":[2,-1,4,-1,-1],"split_conditions":[-7.992245E-1,3.4682803E-2,6.2652645E-3,1.5078199E-2,-6.676279E-2],"split_indices":[13,0,24,0,0],"split_type":[0,0,0,0,0],"sum_hessian":[4.3354244E0,1.8340178E0,2.5014067E0,1.4231373E0,1.0782694E0],"tree_param":{"num_deleted":"0","num_feature":"29","num_nodes":"5","size_leaf_vector":"1"}},{"base_weights":[-5.108793E-3,7.1164094E-2,-4.2665146E-2,-3.6200922E-2,1.7340383E-1,7.949605E-2,-1.5504218E-3],"categories":[],"categories_nodes":[],"categories_segments":[],"categories_sizes":[],"default_left":[0,0,0,0,0,0,0],"id":60,"left_children":[1,3,-1,-1,5,-1,-1],"loss_changes":[6.551572E-2,1.0075232E-1,0E0,0E0,5.1501803E-2,0E0,0E0],"parents":[2147483647,0,0,1,1,4,4],"right_children":[2,4,-1,-1,6,-1,-1],"split_conditions":[6.118855E-1,2.9897377E-1,-4.2665146E-2,-3.6200922E-2,7.59E0,7.949605E-2,-1.5504218E-3],"split_indices":[17,3,0,0,28,0,0],"split_type":[0,0,0,0,0,0,0],"sum_hessian":[4.2970757E0,3.070135E0,1.2269406E0,1.004714E0,2.065421E0,1.0453681E0,1.0200531E0],"tree_param":{"num_deleted":"0","num_feature":"29","num_nodes":"7","size_leaf_vector":"1"}},{"base_weights":[-3.6379253E-3,-1.05139986E-1,3.3663E-2,-7.38215E-2,2.0201357E-2],"categories":[],"categories_nodes":[],"categories_segments":[],"categories_sizes":[],"default_left":[0,0,0,0,0],"id":61,"left_children":[1,3,-1,-1,-1],"loss_changes":[7.3459424E-2,9.7058624E-2,0E0,0E0,0E0],"parents":[2147483647,0,0,1,1],"right_children":[2,4,-1,-1,-1],"split_conditions":[4.6928832E-1,6.957902E-2,3.3663E-2,-7.38215E-2,2.0201357E-2],"split_indices":[10,12,0,0,0],"split_type":[0,0,0,0,0],"sum_hessian":[4.2438726E0,2.3112576E0,1.9326152E0,1.0371314E0,1.274126E0],"tree_param":{"num_deleted":"0","num_feature":"29","num_nodes":"5","size_leaf_vector":"1"}},{"base_weights":[-6.601451E-3,-4.4338737E-2,6.648504E-2,-3.2009136E-2,4.8677865E-2],"categories":[],"categories_nodes":[],"categories_segments":[],"categories_sizes":[],"default_left":[0,0,0,0,0],"id":62,"left_children":[1,-1,3,-1,-1],"loss_changes":[6.3550435E-2,0E0,8.565154E-2,0E0,0E0],"parents":[2147483647,0,0,2,2],"right_children":[2,-1,4,-1,-1],"split_conditions":[-2.4052782E-1,-4.4338737E-2,5.8949348E-2,-3.2009136E-2,4.8677865E-2],"split_indices":[24,0,15,0,0],"split_type":[0,0,0,0,0],"sum_hessian":[4.206139E0,1.0859704E0,3.1201687E0,1.0704699E0,2.0496988E0],"tree_param":{"num_deleted":"0","num_feature":"29","num_nodes":"5","size_leaf_vector":"1"}},{"base_weights":[-1.00085605E-2,4.0283255E-2,-7.8577E-2,2.5549931E-2,-5.7677656E-2],"categories":[],"categories_nodes":[],"categories_segments":[],"categories_sizes":[],"default_left":[0,0,0,0,0],"id":63,"left_children":[1,-1,3,-1,-1],"loss_changes":[6.1717924E-2,0E0,9.337526E-2,0E0,0E0],"parents":[2147483647,0,0,2,2],"right_children":[2,-1,4,-1,-1],"split_conditions":[-5.556986E-1,4.0283255E-2,-1.195927E-1,2.5549931E-2,-5.7677656E-2],"split_indices":[11,0,21,0,0],"split_type":[0,0,0,0,0],"sum_hessian":[4.171775E0,1.0351814E0,3.1365936E0,1.3880825E0,1.7485111E0],"tree_param":{"num_deleted":"0","num_feature":"29","num_nodes":"5","size_leaf_vector":"1"}},{"base_weights":[-5.6003877E-3,-4.310711E-2,6.429834E-2,6.0281474E-2,-2.3810498E-2],"categories":[],"categories_nodes":[],"categories_segments":[],"categories_sizes":[],"default_left":[0,0,0,0,0],"id":64,"left_children":[1,-1,3,-1,-1],"loss_changes":[5.8770724E-2,0E0,9.639179E-2,0E0,0E0],"parents":[2147483647,0,0,2,2],"right_children":[2,-1,4,-1,-1],"split_conditions":[-7.355149E-2,-4.310711E-2,-7.992245E-1,6.0281474E-2,-2.3810498E-2],"split_indices":[26,0,13,0,0],"split_type":[0,0,0,0,0],"sum_hessian":[4.131586E0,1.0337147E0,3.0978713E0,1.3834469E0,1.7144244E0],"tree_param":{"num_deleted":"0","num_feature":"29","num_nodes":"5","size_leaf_vector":"1"}},{"base_weights":[-5.1926784E-3,7.2249904E-2,-4.296245E-2,4.8024055E-2,-2.6343063E-2],"categories":[],"categories_nodes":[],"categories_segments":[],"categories_sizes":[],"default_left":[0,0,0,0,0],"id":65,"left_children":[1,3,-1,-1,-1],"loss_changes":[6.476251E-2,6.92475E-2,0E0,0E0,0E0],"parents":[2147483647,0,0,1,1],"right_children":[2,4,-1,-1,-1],"split_conditions":[6.118855E-1,-1.096624E-1,-4.296245E-2,4.8024055E-2,-2.6343063E-2],"split_indices":[17,7,0,0,0],"split_type":[0,0,0,0,0],"sum_hessian":[4.0911617E0,2.9259021E0,1.1652595E0,1.8891419E0,1.0367602E0],"tree_param":{"num_deleted":"0","num_feature":"29","num_nodes":"5","size_leaf_vector":"1"}},{"base_weights":[-7.862178E-3,7.565229E-2,-3.786398E-2,-2.0582903E-2,6.0430355E-2],"categories":[],"categories_nodes":[],"categories_segments":[],"categories_sizes":[],"default_left":[0,0,0,0,0],"id":66,"left_children":[1,3,-1,-1,-1],"loss_changes":[5.9561882E-2,7.899693E-2,0E0,0E0,0E0],"parents":[2147483647,0,0,1,1],"right_children":[2,4,-1,-1,-1],"split_conditions":[4.0170068E-1,4.6928832E-1,-3.786398E-2,-2.0582903E-2,6.0430355E-2],"split_indices":[14,10,0,0,0],"split_type":[0,0,0,0,0],"sum_hessian":[4.060039E0,2.591868E0,1.4681711E0,1.4189658E0,1.1729021E0],"tree_param":{"num_deleted":"0","num_feature":"29","num_nodes":"5","size_leaf_vector":"1"}},{"base_weights":[-5.085632E-3,3.5543256E-2,-7.3821224E-2,3.200699E-2,-5.2542515E-2],"categories":[],"categories_nodes":[],"categories_segments":[],"categories_sizes":[],"default_left":[0,0,0,0,0],"id":67,"left_children":[1,-1,3,-1,-1],"loss_changes":[5.144313E-2,0E0,8.9034215E-2,0E0,0E0],"parents":[2147483647,0,0,2,2],"right_children":[2,-1,4,-1,-1],"split_conditions":[-8.547368E-1,3.5543256E-2,-6.479053E-1,3.200699E-2,-5.2542515E-2],"split_indices":[9,0,8,0,0],"split_type":[0,0,0,0,0],"sum_hessian":[4.0272036E0,1.1808206E0,2.846383E0,1.0042428E0,1.8421403E0],"tree_param":{"num_deleted":"0","num_feature":"29","num_nodes":"5","size_leaf_vector":"1"}},{"base_weights":[-6.838028E-4,-3.0704198E-2,8.597513E-2,5.122026E-2,-1.404288E-2],"categories":[],"categories_nodes":[],"categories_segments":[],"categories_sizes":[],"default_left":[0,0,0,0,0],"id":68,"left_children":[1,-1,3,-1,-1],"loss_changes":[5.2756976E-2,0E0,4.4423282E-2,0E0,0E0],"parents":[2147483647,0,0,2,2],"right_children":[2,-1,4,-1,-1],"split_conditions":[7.592719E-1,-3.0704198E-2,-2.084842E-2,5.122026E-2,-1.404288E-2],"split_indices":[3,0,19,0,0],"split_type":[0,0,0,0,0],"sum_hessian":[3.9894881E0,1.752507E0,2.2369812E0,1.190967E0,1.0460141E0],"tree_param":{"num_deleted":"0","num_feature":"29","num_nodes":"5","size_leaf_vector":"1"}},{"base_weights":[8.6237956E-4,-9.178498E-2,3.3189774E-2,-6.392106E-2,1.8288758E-2],"categories":[],"categories_nodes":[],"categories_segments":[],"categories_sizes":[],"default_left":[0,0,0,0,0],"id":69,"left_children":[1,3,-1,-1,-1],"loss_changes":[6.0632978E-2,7.2981186E-2,0E0,0E0,0E0],"parents":[2147483647,0,0,1,1],"right_children":[2,4,-1,-1,-1],"split_conditions":[2.995E1,2.6796155E-2,3.3189774E-2,-6.392106E-2,1.8288758E-2],"split_indices":[28,24,0,0,0],"split_type":[0,0,0,0,0],"sum_hessian":[3.9635181E0,2.2382514E0,1.7252667E0,1.0274854E0,1.2107661E0],"tree_param":{"num_deleted":"0","num_feature":"29","num_nodes":"5","size_leaf_vector":"1"}},{"base_weights":[-2.049812E-3,-7.443437E-2,3.9775338E-2,-5.8922227E-2,1.519214E-2],"categories":[],"categories_nodes":[],"categories_segments":[],"categories_sizes":[],"default_left":[0,0,0,0,0],"id":70,"left_children":[1,3,-1,-1,-1],"loss_changes":[5.796658E-2,6.868358E-2,0E0,0E0,0E0],"parents":[2147483647,0,0,1,1],"right_children":[2,4,-1,-1,-1],"split_conditions":[7.3199874E-1,6.9499207E-1,3.9775338E-2,-5.8922227E-2,1.519214E-2],"split_indices":[18,3,0,0,0],"split_type":[0,0,0,0,0],"sum_hessian":[3.935409E0,2.8501794E0,1.0852296E0,1.1542423E0,1.6959372E0],"tree_param":{"num_deleted":"0","num_feature":"29","num_nodes":"5","size_leaf_vector":"1"}},{"base_weights":[-2.3690448E-3,6.69997E-2,-3.7968405E-2,4.280897E-2,-2.1386044E-2],"categories":[],"categories_nodes":[],"categories_segments":[],"categories_sizes":[],"default_left":[0,0,0,0,0],"id":71,"left_children":[1,3,-1,-1,-1],"loss_changes":[5.0722923E-2,4.9950086E-2,0E0,0E0,0E0],"parents":[2147483647,0,0,1,1],"right_children":[2,4,-1,-1,-1],"split_conditions":[6.118855E-1,-1.3284534E-1,-3.7968405E-2,4.280897E-2,-2.1386044E-2],"split_indices":[17,7,0,0,0],"split_type":[0,0,0,0,0],"sum_hessian":[3.9034276E0,2.7999864E0,1.1034415E0,1.7888788E0,1.0111074E0],"tree_param":{"num_deleted":"0","num_feature":"29","num_nodes":"5","size_leaf_vector":"1"}},{"base_weights":[-5.0547244E-3,3.1257086E-2,-9.819802E-2,-5.5756696E-2,1.072828E-2],"categories":[],"categories_nodes":[],"categories_segments":[],"categories_sizes":[],"default_left":[0,0,0,0,0],"id":72,"left_children":[1,-1,3,-1,-1],"loss_changes":[5.9883177E-2,0E0,4.3620072E-2,0E0,0E0],"parents":[2147483647,0,0,2,2],"right_children":[2,-1,4,-1,-1],"split_conditions":[-6.5420216E-1,3.1257086E-2,-6.5484196E-2,-5.5756696E-2,1.072828E-2],"split_indices":[13,0,16,0,0],"split_type":[0,0,0,0,0],"sum_hessian":[3.879583E0,1.7308816E0,2.1487014E0,1.0646366E0,1.0840648E0],"tree_param":{"num_deleted":"0","num_feature":"29","num_nodes":"5","size_leaf_vector":"1"}},{"base_weights":[-6.492882E-3,6.570465E-2,-3.5442732E-2,-2.150843E-2,5.21761E-2],"categories":[],"categories_nodes":[],"categories_segments":[],"categories_sizes":[],"default_left":[0,0,0,0,0],"id":73,"left_children":[1,3,-1,-1,-1],"loss_changes":[4.6888404E-2,6.585289E-2,0E0,0E0,0E0],"parents":[2147483647,0,0,1,1],"right_children":[2,4,-1,-1,-1],"split_conditions":[1.4704837E-1,6.9499207E-1,-3.5442732E-2,-2.150843E-2,5.21761E-2],"split_indices":[13,3,0,0,0],"split_type":[0,0,0,0,0],"sum_hessian":[3.8538337E0,2.590325E0,1.2635087E0,1.2899643E0,1.3003608E0],"tree_param":{"num_deleted":"0","num_feature":"29","num_nodes":"5","size_leaf_vector":"1"}},{"base_weights":[-5.5216798E-3,7.3095575E-2,-3.531432E-2,5.482398E-2,-2.0825412E-2],"categories":[],"categories_nodes":[],"categories_segments":[],"categories_sizes":[],"default_left":[0,0,0,0,0],"id":74,"left_children":[1,3,-1,-1,-1],"loss_changes":[5.1147096E-2,6.664385E-2,0E0,0E0,0E0],"parents":[2147483647,0,0,1,1],"right_children":[2,4,-1,-1,-1],"split_conditions":[4.0170068E-1,2.5002716E-2,-3.531432E-2,5.482398E-2,-2.0825412E-2],"split_indices":[14,24,0,0,0],"split_type":[0,0,0,0,0],"sum_hessian":[3.8232799E0,2.4529185E0,1.3703613E0,1.2267433E0,1.2261752E0],"tree_param":{"num_deleted":"0","num_feature":"29","num_nodes":"5","size_leaf_vector":"1"}},{"base_weights":[-4.1189627E-3,3.0778816E-2,-8.053991E-2,2.5358198E-2,-5.92277E-2],"categories":[],"categories_nodes":[],"categories_segments":[],"categories_sizes":[],"default_left":[0,0,0,0,0],"id":75,"left_children":[1,-1,3,-1,-1],"loss_changes":[4.7377136E-2,0E0,8.141911E-2,0E0,0E0],"parents":[2147483647,0,0,2,2],"right_children":[2,-1,4,-1,-1],"split_conditions":[-3.183391E-1,3.0778816E-2,-1.195927E-1,2.5358198E-2,-5.92277E-2],"split_indices":[11,0,21,0,0],"split_type":[0,0,0,0,0],"sum_hessian":[3.7961736E0,1.4411811E0,2.3549924E0,1.0910453E0,1.2639471E0],"tree_param":{"num_deleted":"0","num_feature":"29","num_nodes":"5","size_leaf_vector":"1"}},{"base_weights":[-3.6916125E-3,3.503985E-2,-7.016614E-2,-4.704268E-2,1.9993566E-2],"categories":[],"categories_nodes":[],"categories_segments":[],"categories_sizes":[],"default_left":[0,0,0,0,0],"id":76,"left_children":[1,-1,3,-1,-1],"loss_changes":[4.6343714E-2,0E0,5.4239944E-2,0E0,0E0],"parents":[2147483647,0,0,2,2],"right_children":[2,-1,4,-1,-1],"split_conditions":[-4.8003933E-1,3.503985E-2,1.115594E-1,-4.704268E-2,1.9993566E-2],"split_indices":[6,0,23,0,0],"split_type":[0,0,0,0,0],"sum_hessian":[3.7628345E0,1.0686866E0,2.694148E0,1.560018E0,1.13413E0],"tree_param":{"num_deleted":"0","num_feature":"29","num_nodes":"5","size_leaf_vector":"1"}},{"base_weights":[-9.769382E-4,6.939732E-2,-3.3911344E-2,-1.8465599E-2,5.0632533E-2],"categories":[],"categories_nodes":[],"categories_segments":[],"categories_sizes":[],"default_left":[0,0,0,0,0],"id":77,"left_children":[1,3,-1,-1,-1],"loss_changes":[4.522035E-2,5.6336105E-2,0E0,0E0,0E0],"parents":[2147483647,0,0,1,1],"right_children":[2,4,-1,-1,-1],"split_conditions":[1.4704837E-1,6.9499207E-1,-3.3911344E-2,-1.8465599E-2,5.0632533E-2],"split_indices":[13,3,0,0,0],"split_type":[0,0,0,0,0],"sum_hessian":[3.7393959E0,2.5307815E0,1.2086142E0,1.2561667E0,1.2746149E0],"tree_param":{"num_deleted":"0","num_feature":"29","num_nodes":"5","size_leaf_vector":"1"}},{"base_weights":[-1.0155885E-3,-6.653671E-2,3.563555E-2,1.5559715E-2,-5.2953426E-2],"categories":[],"categories_nodes":[],"categories_segments":[],"categories_sizes":[],"default_left":[0,0,0,0,0],"id":78,"left_children":[1,3,-1,-1,-1],"loss_changes":[4.4891726E-2,5.7166144E-2,0E0,0E0,0E0],"parents":[2147483647,0,0,1,1],"right_children":[2,4,-1,-1,-1],"split_conditions":[7.3199874E-1,-6.503621E-2,3.563555E-2,1.5559715E-2,-5.2953426E-2],"split_indices":[18,7,0,0,0],"split_type":[0,0,0,0,0],"sum_hessian":[3.7121785E0,2.68714E0,1.0250385E0,1.5484318E0,1.1387082E0],"tree_param":{"num_deleted":"0","num_feature":"29","num_nodes":"5","size_leaf_vector":"1"}},{"base_weights":[-1.1759434E-3,-8.032522E-2,2.8055388E-2,-5.766829E-2,2.2564612E-2],"categories":[],"categories_nodes":[],"categories_segments":[],"categories_sizes":[],"default_left":[0,0,0,0,0],"id":79,"left_children":[1,3,-1,-1,-1],"loss_changes":[4.2644545E-2,6.826323E-2,0E0,0E0,0E0],"parents":[2147483647,0,0,1,1],"right_children":[2,4,-1,-1,-1],"split_conditions":[2.995E1,1.6214742E-1,2.8055388E-2,-5.766829E-2,2.2564612E-2],"split_indices":[28,24,0,0,0],"split_type":[0,0,0,0,0],"sum_hessian":[3.6875129E0,2.0912735E0,1.5962393E0,1.0790745E0,1.0121992E0],"tree_param":{"num_deleted":"0","num_feature":"29","num_nodes":"5","size_leaf_vector":"1"}},{"base_weights":[-2.4506669E-3,3.0962786E-2,-6.6125534E-2,2.0219272E-2,-4.973994E-2],"categories":[],"categories_nodes":[],"categories_segments":[],"categories_sizes":[],"default_left":[0,0,0,0,0],"id":80,"left_children":[1,-1,3,-1,-1],"loss_changes":[3.8197897E-2,0E0,5.8010444E-2,0E0,0E0],"parents":[2147483647,0,0,2,2],"right_children":[2,-1,4,-1,-1],"split_conditions":[-3.993681E-1,3.0962786E-2,-1.195927E-1,2.0219272E-2,-4.973994E-2],"split_indices":[11,0,21,0,0],"split_type":[0,0,0,0,0],"sum_hessian":[3.6631503E0,1.1439832E0,2.5191672E0,1.2151629E0,1.3040042E0],"tree_param":{"num_deleted":"0","num_feature":"29","num_nodes":"5","size_leaf_vector":"1"}},{"base_weights":[-1.4979154E-3,2.6915345E-2,-2.4344347E-2],"categories":[],"categories_nodes":[],"categories_segments":[],"categories_sizes":[],"default_left":[0,0,0],"id":81,"left_children":[1,-1,-1],"loss_changes":[4.0975004E-2,0E0,0E0],"parents":[2147483647,0,0],"right_children":[2,-1,-1],"split_conditions":[-6.5420216E-1,2.6915345E-2,-2.4344347E-2],"split_indices":[13,0,0],"split_type":[0,0,0],"sum_hessian":[3.637728E0,1.6368228E0,2.000905E0],"tree_param":{"num_deleted":"0","num_feature":"29","num_nodes":"3","size_leaf_vector":"1"}},{"base_weights":[-5.0325244E-4,-6.3749045E-2,3.369458E-2,-6.414131E-2,3.221455E-2],"categories":[],"categories_nodes":[],"categories_segments":[],"categories_sizes":[],"default_left":[0,0,0,0,0],"id":82,"left_children":[1,3,-1,-1,-1],"loss_changes":[4.017117E-2,1.154668E-1,0E0,0E0,0E0],"parents":[2147483647,0,0,1,1],"right_children":[2,4,-1,-1,-1],"split_conditions":[1.921863E0,2.995E1,3.369458E-2,-6.414131E-2,3.221455E-2],"split_indices":[3,28,0,0,0],"split_type":[0,0,0,0,0],"sum_hessian":[3.6264625E0,2.6024673E0,1.0239952E0,1.2537555E0,1.3487117E0],"tree_param":{"num_deleted":"0","num_feature":"29","num_nodes":"5","size_leaf_vector":"1"}},{"base_weights":[-1.3559E-4,6.3862905E-2,-3.0203098E-2,-1.9199636E-2,4.8700586E-2],"categories":[],"categories_nodes":[],"categories_segments":[],"categories_sizes":[],"default_left":[0,0,0,0,0],"id":83,"left_children":[1,3,-1,-1,-1],"loss_changes":[3.595465E-2,5.339573E-2,0E0,0E0,0E0],"parents":[2147483647,0,0,1,1],"right_children":[2,4,-1,-1,-1],"split_conditions":[1.4704837E-1,6.9499207E-1,-3.0203098E-2,-1.9199636E-2,4.8700586E-2],"split_indices":[13,3,0,0,0],"split_type":[0,0,0,0,0],"sum_hessian":[3.5885668E0,2.415694E0,1.1728728E0,1.2033218E0,1.2123721E0],"tree_param":{"num_deleted":"0","num_feature":"29","num_nodes":"5","size_leaf_vector":"1"}},{"base_weights":[-2.0808357E-4,6.407345E-2,-3.4329895E-2,5.170543E-2,-1.4093851E-2],"categories":[],"categories_nodes":[],"categories_segments":[],"categories_sizes":[],"default_left":[0,0,0,0,0],"id":84,"left_children":[1,3,-1,-1,-1],"loss_changes":[4.0847633E-2,5.0927192E-2,0E0,0E0,0E0],"parents":[2147483647,0,0,1,1],"right_children":[2,4,-1,-1,-1],"split_conditions":[6.118855E-1,7.7E0,-3.4329895E-2,5.170543E-2,-1.4093851E-2],"split_indices":[17,28,0,0,0],"split_type":[0,0,0,0,0],"sum_hessian":[3.5645607E0,2.5618854E0,1.0026752E0,1.0176697E0,1.5442157E0],"tree_param":{"num_deleted":"0","num_feature":"29","num_nodes":"5","size_leaf_vector":"1"}},{"base_weights":[6.1731634E-4,3.2457314E-2,-6.051344E-2,-4.0995672E-2,1.7176816E-2],"categories":[],"categories_nodes":[],"categories_segments":[],"categories_sizes":[],"default_left":[0,0,0,0,0],"id":85,"left_children":[1,-1,3,-1,-1],"loss_changes":[3.641356E-2,0E0,3.954258E-2,0E0,0E0],"parents":[2147483647,0,0,2,2],"right_children":[2,-1,4,-1,-1],"split_conditions":[-4.8003933E-1,3.2457314E-2,1.115594E-1,-4.0995672E-2,1.7176816E-2],"split_indices":[6,0,23,0,0],"split_type":[0,0,0,0,0],"sum_hessian":[3.5417068E0,1.0044008E0,2.5373058E0,1.4436438E0,1.0936621E0],"tree_param":{"num_deleted":"0","num_feature":"29","num_nodes":"5","size_leaf_vector":"1"}},{"base_weights":[2.3005668E-3,2.6643867E-2,-7.0211545E-2,-3.8083896E-2,6.5879426E-3],"categories":[],"categories_nodes":[],"categories_segments":[],"categories_sizes":[],"default_left":[0,0,0,0,0],"id":86,"left_children":[1,-1,3,-1,-1],"loss_changes":[3.461485E-2,0E0,1.8577982E-2,0E0,0E0],"parents":[2147483647,0,0,2,2],"right_children":[2,-1,4,-1,-1],"split_conditions":[-7.992245E-1,2.6643867E-2,1.7465004E-1,-3.8083896E-2,6.5879426E-3],"split_indices":[13,0,14,0,0],"split_type":[0,0,0,0,0],"sum_hessian":[3.5238793E0,1.504317E0,2.0195622E0,1.016552E0,1.0030104E0],"tree_param":{"num_deleted":"0","num_feature":"29","num_nodes":"5","size_leaf_vector":"1"}},{"base_weights":[5.075455E-4,6.837146E-2,-2.9499909E-2,5.0166775E-2,-1.8684423E-2],"categories":[],"categories_nodes":[],"categories_segments":[],"categories_sizes":[],"default_left":[0,0,0,0,0],"id":87,"left_children":[1,3,-1,-1,-1],"loss_changes":[3.697752E-2,5.2571453E-2,0E0,0E0,0E0],"parents":[2147483647,0,0,1,1],"right_children":[2,4,-1,-1,-1],"split_conditions":[4.0170068E-1,2.5002716E-2,-2.9499909E-2,5.0166775E-2,-1.8684423E-2],"split_indices":[14,24,0,0,0],"split_type":[0,0,0,0,0],"sum_hessian":[3.5103855E0,2.264112E0,1.2462736E0,1.1295795E0,1.1345323E0],"tree_param":{"num_deleted":"0","num_feature":"29","num_nodes":"5","size_leaf_vector":"1"}},{"base_weights":[8.390474E-4,-2.1603107E-2,2.531469E-2],"categories":[],"categories_nodes":[],"categories_segments":[],"categories_sizes":[],"default_left":[0,0,0],"id":88,"left_children":[1,-1,-1],"loss_changes":[3.3397794E-2,0E0,0E0],"parents":[2147483647,0,0],"right_children":[2,-1,-1],"split_conditions":[4.6928832E-1,-2.1603107E-2,2.531469E-2],"split_indices":[10,0,0],"split_type":[0,0,0],"sum_hessian":[3.4891644E0,1.9376167E0,1.5515476E0],"tree_param":{"num_deleted":"0","num_feature":"29","num_nodes":"3","size_leaf_vector":"1"}},{"base_weights":[1.4120836E-3,-2.9065283E-2,5.8934554E-2,4.843708E-2,-2.6901118E-2],"categories":[],"categories_nodes":[],"categories_segments":[],"categories_sizes":[],"default_left":[0,0,0,0,0],"id":89,"left_children":[1,-1,3,-1,-1],"loss_changes":[3.1042457E-2,0E0,6.7010924E-2,0E0,0E0],"parents":[2147483647,0,0,2,2],"right_children":[2,-1,4,-1,-1],"split_conditions":[-1.5611427E-1,-2.9065283E-2,2.349904E-2,4.843708E-2,-2.6901118E-2],"split_indices":[24,0,27,0,0],"split_type":[0,0,0,0,0],"sum_hessian":[3.4802809E0,1.0321766E0,2.4481041E0,1.3974919E0,1.0506123E0],"tree_param":{"num_deleted":"0","num_feature":"29","num_nodes":"5","size_leaf_vector":"1"}},{"base_weights":[-6.653692E-4,2.2199146E-2,-2.4013497E-2],"categories":[],"categories_nodes":[],"categories_segments":[],"categories_sizes":[],"default_left":[0,0,0],"id":90,"left_children":[1,-1,-1],"loss_changes":[3.2347023E-2,0E0,0E0],"parents":[2147483647,0,0],"right_children":[2,-1,-1],"split_conditions":[5.6221906E-2,2.2199146E-2,-2.4013497E-2],"split_indices":[0,0,0],"split_type":[0,0,0],"sum_hessian":[3.458468E0,1.8171283E0,1.6413398E0],"tree_param":{"num_deleted":"0","num_feature":"29","num_nodes":"3","size_leaf_vector":"1"}},{"base_weights":[-8.8408944E-4,-2.9671896E-2,5.7941515E-2,5.577634E-2,-2.585153E-2],"categories":[],"categories_nodes":[],"categories_segments":[],"categories_sizes":[],"default_left":[0,0,0,0,0],"id":91,"left_children":[1,-1,3,-1,-1],"loss_changes":[3.1397127E-2,0E0,7.895693E-2,0E0,0E0],"parents":[2147483647,0,0,2,2],"right_children":[2,-1,4,-1,-1],"split_conditions":[-1.543569E-2,-2.9671896E-2,-5.296655E-2,5.577634E-2,-2.585153E-2],"split_indices":[27,0,21,0,0],"split_type":[0,0,0,0,0],"sum_hessian":[3.4511592E0,1.0388147E0,2.4123447E0,1.1240392E0,1.2883054E0],"tree_param":{"num_deleted":"0","num_feature":"29","num_nodes":"5","size_leaf_vector":"1"}},{"base_weights":[-5.01931E-4,2.4577267E-2,-2.1365859E-2],"categories":[],"categories_nodes":[],"categories_segments":[],"categories_sizes":[],"default_left":[0,0,0],"id":92,"left_children":[1,-1,-1],"loss_changes":[3.1621873E-2,0E0,0E0],"parents":[2147483647,0,0],"right_children":[2,-1,-1],"split_conditions":[-2.201335E-1,2.4577267E-2,-2.1365859E-2],"split_indices":[11,0,0],"split_type":[0,0,0],"sum_hessian":[3.423977E0,1.5079217E0,1.9160553E0],"tree_param":{"num_deleted":"0","num_feature":"29","num_nodes":"3","size_leaf_vector":"1"}},{"base_weights":[3.705699E-4,-2.2157723E-2,2.135731E-2],"categories":[],"categories_nodes":[],"categories_segments":[],"categories_sizes":[],"default_left":[0,0,0],"id":93,"left_children":[1,-1,-1],"loss_changes":[2.846433E-2,0E0,0E0],"parents":[2147483647,0,0],"right_children":[2,-1,-1],"split_conditions":[2.3497984E-1,-2.2157723E-2,2.135731E-2],"split_indices":[14,0,0],"split_type":[0,0,0],"sum_hessian":[3.4143667E0,1.6461098E0,1.768257E0],"tree_param":{"num_deleted":"0","num_feature":"29","num_nodes":"3","size_leaf_vector":"1"}},{"base_weights":[7.01081E-5,6.461489E-2,-2.8057734E-2,4.4827536E-2,-1.4931504E-2],"categories":[],"categories_nodes":[],"categories_segments":[],"categories_sizes":[],"default_left":[0,0,0,0,0],"id":94,"left_children":[1,3,-1,-1,-1],"loss_changes":[3.266644E-2,3.847796E-2,0E0,0E0,0E0],"parents":[2147483647,0,0,1,1],"right_children":[2,4,-1,-1,-1],"split_conditions":[4.0170068E-1,2.5002716E-2,-2.8057734E-2,4.4827536E-2,-1.4931504E-2],"split_indices":[14,24,0,0,0],"split_type":[0,0,0,0,0],"sum_hessian":[3.4070067E0,2.199705E0,1.207302E0,1.0872571E0,1.1124477E0],"tree_param":{"num_deleted":"0","num_feature":"29","num_nodes":"5","size_leaf_vector":"1"}},{"base_weights":[4.9456576E-4,6.2177487E-2,-2.9288208E-2,-1.8447468E-2,4.713508E-2],"categories":[],"categories_nodes":[],"categories_segments":[],"categories_sizes":[],"default_left":[0,0,0,0,0],"id":95,"left_children":[1,3,-1,-1,-1],"loss_changes":[3.263945E-2,4.8481114E-2,0E0,0E0,0E0],"parents":[2147483647,0,0,1,1],"right_children":[2,4,-1,-1,-1],"split_conditions":[1.4704837E-1,6.9499207E-1,-2.9288208E-2,-1.8447468E-2,4.713508E-2],"split_indices":[13,3,0,0,0],"split_type":[0,0,0,0,0],"sum_hessian":[3.3898318E0,2.306321E0,1.0835109E0,1.1546154E0,1.1517055E0],"tree_param":{"num_deleted":"0","num_feature":"29","num_nodes":"5","size_leaf_vector":"1"}},{"base_weights":[2.4891697E-4,-2.7171785E-2,6.297733E-2,-2.0796232E-2,4.6912223E-2],"categories":[],"categories_nodes":[],"categories_segments":[],"categories_sizes":[],"default_left":[0,0,0,0,0],"id":96,"left_children":[1,-1,3,-1,-1],"loss_changes":[3.0589027E-2,0E0,5.005177E-2,0E0,0E0],"parents":[2147483647,0,0,2,2],"right_children":[2,-1,4,-1,-1],"split_conditions":[-2.8961658E-1,-2.7171785E-2,2.2363518E-1,-2.0796232E-2,4.6912223E-2],"split_indices":[25,0,16,0,0],"split_type":[0,0,0,0,0],"sum_hessian":[3.3680198E0,1.1945713E0,2.1734486E0,1.0060885E0,1.1673601E0],"tree_param":{"num_deleted":"0","num_feature":"29","num_nodes":"5","size_leaf_vector":"1"}},{"base_weights":[-3.2835393E-5,2.311131E-2,-2.1220364E-2],"categories":[],"categories_nodes":[],"categories_segments":[],"categories_sizes":[],"default_left":[0,0,0],"id":97,"left_children":[1,-1,-1],"loss_changes":[2.9141804E-2,0E0,0E0],"parents":[2147483647,0,0],"right_children":[2,-1,-1],"split_conditions":[1.6344269E-1,2.311131E-2,-2.1220364E-2],"split_indices":[1,0,0],"split_type":[0,0,0],"sum_hessian":[3.3480453E0,1.5589974E0,1.789048E0],"tree_param":{"num_deleted":"0","num_feature":"29","num_nodes":"3","size_leaf_vector":"1"}},{"base_weights":[4.0564509E-4,-5.6132577E-2,2.6877102E-2,2.8308922E-2,-5.450655E-2],"categories":[],"categories_nodes":[],"categories_segments":[],"categories_sizes":[],"default_left":[0,0,0,0,0],"id":98,"left_children":[1,3,-1,-1,-1],"loss_changes":[2.692391E-2,7.897695E-2,0E0,0E0,0E0],"parents":[2147483647,0,0,1,1],"right_children":[2,4,-1,-1,-1],"split_conditions":[1.4011657E0,-1.5043442E-1,2.6877102E-2,2.8308922E-2,-5.450655E-2],"split_indices":[3,22,0,0,0],"split_type":[0,0,0,0,0],"sum_hessian":[3.3422217E0,2.2723064E0,1.0699153E0,1.1465046E0,1.1258019E0],"tree_param":{"num_deleted":"0","num_feature":"29","num_nodes":"5","size_leaf_vector":"1"}},{"base_weights":[3.3082048E-4,-2.7187763E-2,5.511735E-2,5.010761E-2,-2.210483E-2],"categories":[],"categories_nodes":[],"categories_segments":[],"categories_sizes":[],"default_left":[0,0,0,0,0],"id":99,"left_children":[1,-1,3,-1,-1],"loss_changes":[2.6494868E-2,0E0,6.0080197E-2,0E0,0E0],"parents":[2147483647,0,0,2,2],"right_children":[2,-1,4,-1,-1],"split_conditions":[-1.543569E-2,-2.7187763E-2,-5.296655E-2,5.010761E-2,-2.210483E-2],"split_indices":[27,0,21,0,0],"split_type":[0,0,0,0,0],"sum_hessian":[3.314457E0,1.0000345E0,2.3144226E0,1.0796171E0,1.2348053E0],"tree_param":{"num_deleted":"0","num_feature":"29","num_nodes":"5","size_leaf_vector":"1"}}]},"name":"gbtree"},"learner_model_param":{"base_score":"4.7241175E-1","boost_from_average":"1","num_class":"0","num_feature":"29","num_target":"1"},"objective":{"name":"binary:logistic","reg_loss_param":{"scale_pos_weight":"1"}}},"version":[2,0,3]}